svm_type c_svc
kernel_type rbf
gamma 0.111111
nr_class 2
total_sv 8782
rho -0.273831
label 1 -1
probA -1.35965
probB -0.164392
nr_sv 4432 4350
SV
1 1:-0.79313593 2:0.53 3:0.16 4:0.44 5:0.56 6:0.37 7:0.17 8:1 9:6 
1 1:-1.2900132 2:0.53 3:0.16 4:0.44 5:0.37 6:0.17 7:0.21 8:1 9:5 
1 1:-1.3026343 2:0.14 3:0.24 4:0.69 5:0.49 6:0.56 7:0.37 8:5 9:7 
1 1:-0.74364528 2:0.24 3:0.69 4:0.54 5:0.71 6:0.49 7:0.56 8:6 9:8 
1 1:-0.092401351 2:0.71 3:0.49 4:0.56 5:0.49 6:0.56 7:0.37 8:8 9:7 
1 1:-0.37851175 2:0.28 3:0.47 4:0.49 5:0.47 6:0.49 7:0.55 8:2 9:3 
1 1:-0.092396926 2:0.47 3:0.49 4:0.55 5:0.49 6:0.55 7:0.2 8:3 9:4 
1 1:-0.93090628 2:0.49 3:0.55 4:0.2 5:0.55 6:0.2 7:0.49 8:4 9:5 
1 1:-0.29578023 2:0.2 3:0.49 4:0.54 5:0.64 6:0.88 7:0.2 8:6 9:7 
1 1:-0.87287565 2:0.35 3:0.49 4:0.15 5:0.49 6:0.15 7:0.15 8:7 9:6 
1 1:-0.87288618 2:0.49 3:0.15 4:0.15 5:0.65 6:0.69 7:0.59 8:6 9:7 
1 1:-0.092467738 2:0.15 3:0.44 4:0.25 5:0.54 6:0.58 7:0.55 8:4 9:1 
1 1:-1.0770122 2:0.44 3:0.25 4:0.54 5:0.25 6:0.54 7:0.58 8:3 9:2 
1 1:-0.98842975 2:0.63 3:0.44 4:0.71 5:0.55 6:0.39 7:0.55 8:2 9:11 
1 1:-0.37858256 2:0.44 3:0.71 4:0.95 5:0.71 6:0.95 7:0.2 8:3 9:4 
1 1:-0.68755311 2:0.71 3:0.95 4:0.2 5:0.95 6:0.2 7:0.65 8:4 9:5 
1 1:-0.092388074 2:0.71 3:0.95 4:0.2 5:0.69 6:0.59 7:0.66 8:4 9:8 
1 1:-0.49263282 2:0.71 3:0.95 4:0.2 5:0.59 6:0.66 7:0.55 8:4 9:9 
1 1:-0.68753585 2:0.95 3:0.2 4:0.65 5:0.2 6:0.65 7:0.69 8:5 9:6 
1 1:-0.092383648 2:0.2 3:0.65 4:0.69 5:0.69 6:0.59 7:0.66 8:6 9:8 
1 1:-0.49260406 2:0.2 3:0.65 4:0.69 5:0.59 6:0.66 7:0.55 8:6 9:9 
1 1:-0.10136803 2:0.2 3:0.65 4:0.69 5:0.2 6:0.58 7:0.04 8:6 9:5 
1 1:-0.092441184 2:0.2 3:0.65 4:0.69 5:0.23 6:0.83 7:0.25 8:6 9:1 
1 1:-0.092396926 2:0.65 3:0.69 4:0.59 5:0.69 6:0.59 7:0.66 8:7 9:8 
0.1801733017539391 1:-0.49262132 2:0.69 3:0.59 4:0.66 5:0.59 6:0.66 7:0.55 8:8 9:9 
1 1:-0.49944059 2:0.59 3:0.66 4:0.55 5:0.2 6:0.58 7:0.04 8:9 9:5 
1 1:-0.49258325 2:0.59 3:0.66 4:0.55 5:0.23 6:0.83 7:0.25 8:9 9:1 
1 1:-0.55685342 2:0.39 3:0.64 4:0.88 5:0.64 6:0.88 7:0.2 8:8 9:7 
1 1:-0.29105347 2:0.39 3:0.64 4:0.88 5:0.2 6:0.58 7:0.04 8:8 9:5 
0.7535942300616026 1:-0.22511788 2:0.64 3:0.88 4:0.2 5:0.88 6:0.2 7:0.58 8:7 9:6 
1 1:-0.10138573 2:0.2 3:0.58 4:0.04 5:0.23 6:0.83 7:0.25 8:5 9:1 
1 1:-1.4424037 2:0.58 3:0.04 4:0.07 5:0.04 6:0.07 7:0.23 8:4 9:3 
1 1:-1.0082529 2:0.58 3:0.04 4:0.07 5:0.23 6:0.83 7:0.25 8:4 9:1 
1 1:-1.367528 2:0.07 3:0.23 4:0.83 5:0.23 6:0.83 7:0.25 8:2 9:1 
0.8593758915875361 1:5.7756191 2:0.06 3:0.47 4:0.12 5:0.52 6:0.37 7:0.19 8:2 9:5 
1 1:-0.13051193 2:0.59 3:0.13 4:0.48 5:0.13 6:0.48 7:0.34 8:5 9:4 
1 1:3.1324327 2:0.14 3:0.64 4:0.27 5:0.64 6:0.27 7:0.23 8:3 9:2 
1 1:-1.0445171 2:0.64 3:0.27 4:0.23 5:0.27 6:0.23 7:0.49 8:2 9:1 
1 1:-0.43003038 2:0.01 3:1 4:0.87 5:1 6:1 7:0.54 8:5 9:1 
1 1:-0.9263858 2:1 3:1 4:0.38 5:1 6:0.55 7:0.95 8:1 9:1 
1 1:-0.60435938 2:0.76 3:0.44 4:0.64 5:0.37 6:0.78 7:0.13 8:1 9:9 
0.6336731468688196 1:17.383495 2:0.56 3:0.12 4:0.11 5:0.22 6:0.08 7:0.37 8:6 9:10 
0.4599779718401091 1:32.305061 2:0.12 3:0.11 4:0.09 5:0.11 6:0.09 7:0.22 8:7 9:8 
0.05445423755541145 1:26.452342 2:0.09 3:0.22 4:0.08 5:0.22 6:0.08 7:0.37 8:9 9:10 
0.9097653006800279 1:4.2044977 2:0.78 3:0.13 4:0.95 5:0.95 6:0.67 7:1 8:8 9:6 
1 1:-2.4937094 2:0.95 3:0.67 4:1 5:0.73 6:0.36 7:0.42 8:6 9:6 
1 1:1.486296 2:0.67 3:1 4:0.69 5:0.69 6:1 7:1 8:5 9:3 
1 1:1.4860289 2:0.67 3:1 4:0.69 5:1 6:1 7:0.55 8:5 9:2 
1 1:1.1364916 2:0.67 3:1 4:0.69 5:0.58 6:0.92 7:0.44 8:5 9:5 
1 1:0.94218464 2:0.67 3:1 4:0.69 5:0.44 6:0.9 7:1 8:5 9:3 
1 1:0.28888765 2:1 3:0.69 4:1 5:0.69 6:1 7:1 8:4 9:3 
1 1:-1.0807016 2:1 3:0.69 4:1 5:1 6:0.76 7:0.73 8:4 9:4 
1 1:-0.66174494 2:1 3:0.69 4:1 5:0.73 6:0.36 7:0.42 8:4 9:6 
1 1:0.89190737 2:1 3:1 4:0.55 5:0.5 6:0.58 7:0.92 8:2 9:6 
1 1:1.1365564 2:1 3:1 4:0.55 5:0.58 6:0.92 7:0.44 8:2 9:5 
1 1:0.71533197 2:1 3:1 4:0.55 5:0.92 6:0.44 7:0.9 8:2 9:4 
1 1:0.9464496 2:1 3:1 4:0.54 5:1 6:0.54 7:1 8:1 9:2 
1 1:-0.0126303 2:0.61 3:0.9 4:0.93 5:0.9 6:0.93 7:0.79 8:5 9:6 
1 1:1.3720239 2:0.9 3:0.93 4:0.79 5:0.93 6:0.79 7:0.7 8:6 9:7 
1 1:1.0228427 2:0.58 3:0.92 4:0.44 5:0.9 6:1 7:0.7 8:5 9:2 
1 1:-0.25096115 2:0.58 3:0.92 4:0.44 5:1 6:0.7 7:0.37 8:5 9:1 
1 1:-0.53079048 2:0.44 3:0.9 4:1 5:1 6:0.7 7:0.37 8:3 9:1 
1 1:-1.3312463 2:0.59 3:0.92 4:0.95 5:1 6:0.22 7:0.85 8:1 9:8 
1 1:0.60033966 2:0.92 3:0.95 4:0.74 5:0.95 6:0.74 7:1 8:2 9:3 
1 1:0.60029515 2:0.95 3:0.74 4:1 5:0.74 6:1 7:0.95 8:3 9:4 
1 1:-0.3937049 2:0.95 3:0.53 4:0.95 5:0.53 6:0.95 7:0.75 8:6 9:7 
0.0355456140423239 1:-0.43113709 2:0.53 3:0.95 4:0.75 5:0.95 6:0.75 7:0.91 8:7 9:8 
1 1:-0.43079678 2:0.95 3:0.75 4:0.91 5:0.91 6:1 7:0.47 8:8 9:10 
1 1:0.11612807 2:0.91 3:1 4:0.47 5:0.94 6:1 7:0.53 8:10 9:6 
1 1:-0.43234253 2:0.22 3:0.85 4:0.76 5:0.85 6:0.76 7:0.49 8:7 9:6 
1 1:0.11614021 2:0.22 3:0.85 4:0.76 5:0.89 6:1 7:1 8:7 9:2 
1 1:-1.6596813 2:0.85 3:0.76 4:0.49 5:0.76 6:0.49 7:0.35 8:6 9:5 
1 1:2.0136793 2:0.85 3:0.76 4:0.49 5:0.85 6:0.79 7:0.77 8:6 9:2 
0.7572405346762596 1:15.822007 2:0.85 3:0.76 4:0.49 5:0.79 6:0.77 7:0.33 8:6 9:1 
1 1:0.70000398 2:0.76 3:0.49 4:0.35 5:0.35 6:0.85 7:0.79 8:5 9:3 
1 1:-1.4347912 2:0.76 3:0.49 4:0.35 5:0.85 6:0.79 7:0.77 8:5 9:2 
1 1:-0.2024012 2:0.76 3:0.49 4:0.35 5:0.98 6:0.59 7:0.59 8:5 9:9 
1 1:-0.79030415 2:0.49 3:0.35 4:0.85 5:0.35 6:0.85 7:0.79 8:4 9:3 
1 1:2.7361181 2:0.49 3:0.35 4:0.85 5:0.98 6:0.59 7:0.59 8:4 9:9 
1 1:-1.2874596 2:0.49 3:0.35 4:0.85 5:0.59 6:1 7:0.74 8:4 9:11 
1 1:-1.271735 2:0.49 3:0.35 4:0.85 5:1 6:0.71 7:0.8 8:4 9:8 
1 1:-0.71839814 2:0.35 3:0.85 4:0.79 5:0.85 6:0.79 7:0.77 8:3 9:2 
1 1:-0.65086604 2:0.35 3:0.85 4:0.79 5:1 6:0.71 7:0.8 8:3 9:8 
1 1:-1.0825711 2:0.46 3:0.57 4:0.38 5:0.5 6:0.51 7:0.43 8:1 9:6 
1 1:-1.2957346 2:0.38 3:1 4:0.76 5:1 6:0.5 7:0.51 8:3 9:7 
1 1:-1.4181036 2:0.76 3:0.73 4:0.36 5:0.73 6:0.36 7:0.42 8:5 9:6 
1 1:-0.10366352 2:0.76 3:0.73 4:0.36 5:0.22 6:0.36 7:0.15 8:5 9:9 
1 1:-0.87964352 2:0.76 3:0.73 4:0.36 5:0.43 6:1 7:0.5 8:5 9:8 
1 1:-1.2388656 2:0.43 3:1 4:0.5 5:1 6:0.5 7:0.51 8:8 9:7 
1 1:-0.19451465 2:1 3:0.5 4:0.51 5:0.51 6:0.43 7:0.24 8:7 9:5 
1 1:1.6582989 2:0.5 3:0.51 4:0.43 5:0.24 6:0.44 7:0.19 8:6 9:3 
1 1:0.047265407 2:0.51 3:0.43 4:0.24 5:0.44 6:0.19 7:0.59 8:5 9:2 
1 1:-0.26556766 2:1 3:0.94 4:1 5:0.94 6:1 7:0.53 8:5 9:6 
1 1:-0.63526398 2:0.84 3:0.53 4:0.92 5:0.53 6:0.92 7:1 8:7 9:6 
1 1:-0.23885819 2:0.84 3:0.53 4:0.92 5:0.36 6:0.27 7:0.32 8:7 9:4 
1 1:-1.0636013 2:0.84 3:0.53 4:0.92 5:0.32 6:0.64 7:0.75 8:7 9:6 
1 1:-0.41508154 2:0.92 3:1 4:0.56 5:1 6:0.56 7:0.37 8:5 9:4 
1 1:-1.2156834 2:1 3:0.56 4:0.37 5:0.56 6:0.37 7:0.23 8:4 9:3 
1 1:0.15185427 2:1 3:0.56 4:0.37 5:0.27 6:0.32 7:0.64 8:4 9:5 
1 1:0.77203098 2:0.56 3:0.37 4:0.23 5:0.27 6:0.32 7:0.64 8:3 9:5 
1 1:-1.8719384 2:0.56 3:0.37 4:0.23 5:0.25 6:0.2 7:0.18 8:3 9:4 
1 1:-1.4955366 2:0.37 3:0.23 4:0.06 5:0.23 6:0.06 7:0.41 8:2 9:1 
0.1221080174126437 1:28.372266 2:0.47 3:0.06 4:0.24 5:0.06 6:0.24 7:0.36 8:1 9:2 
1 1:-0.055284039 2:0.06 3:0.24 4:0.36 5:0.24 6:0.36 7:0.27 8:2 9:3 
1 1:-0.33708116 2:0.27 3:0.32 4:0.64 5:0.57 6:0.35 7:0.41 8:5 9:2 
1 1:0.44717709 2:0.64 3:0.75 4:0.98 5:0.48 6:0.39 7:0.57 8:7 9:4 
1 1:-1.0041511 2:0.75 3:0.98 4:0.59 5:0.23 6:0.48 7:0.39 8:8 9:5 
1 1:1.7317907 2:0.98 3:0.59 4:0.59 5:0.8 6:0.23 7:0.48 8:9 9:6 
1 1:-0.30745864 2:0.59 3:1 4:0.74 5:1 6:0.71 7:0.8 8:11 9:8 
1 1:-0.4578069 2:1 3:0.74 4:0.14 5:0.76 6:1 7:0.71 8:12 9:9 
1 1:-0.51406079 2:0.74 3:0.14 4:1 5:0.44 6:0.76 7:1 8:13 9:10 
0.5778953481809639 1:-1.220786 2:0.53 3:1 4:0.28 5:1 6:0.28 7:1 8:16 9:17 
1 1:-0.22024204 2:1 3:0.71 4:0.8 5:0.71 6:0.8 7:0.23 8:8 9:7 
1 1:-1.2360695 2:0.71 3:0.8 4:0.23 5:0.8 6:0.23 7:0.48 8:7 9:6 
1 1:0.46691168 2:0.48 3:0.39 4:0.57 5:0.35 6:0.41 7:0.2 8:4 9:1 
1 1:-0.51585176 2:0.39 3:0.57 4:0.35 5:0.57 6:0.35 7:0.41 8:3 9:2 
0.0137542713720572 1:17.843902 2:0.16 3:0.21 4:0.25 5:0.21 6:0.25 7:0.2 8:2 9:3 
0.2406835933108992 1:9.0537353 2:0.16 3:0.21 4:0.25 5:0.18 6:0.24 7:0.08 8:2 9:6 
1 1:16.780978 2:0.21 3:0.25 4:0.2 5:0.18 6:0.24 7:0.08 8:3 9:6 
0.1811918270440914 1:21.953851 2:0.25 3:0.2 4:0.18 5:0.2 6:0.18 7:0.24 8:4 9:5 
1 1:-0.30411788 2:0.09 3:0.19 4:0.4 5:0.26 6:0.19 7:0.22 8:11 9:1 
1 1:0.1921732 2:0.19 3:0.4 4:0.61 5:0.26 6:0.19 7:0.22 8:12 9:1 
1 1:-1.3876378 2:0.4 3:0.61 4:0.42 5:0.26 6:0.19 7:0.22 8:13 9:1 
1 1:-0.77099444 2:1 3:0.89 4:0.53 5:0.93 6:0.52 7:0.61 8:6 9:1 
1 1:-0.60394288 2:0.53 3:0.7 4:0.14 5:0.7 6:0.14 7:0.93 8:4 9:3 
1 1:-1.4365514 2:0.7 3:0.14 4:0.93 5:0.14 6:0.93 7:0.52 8:3 9:2 
1 1:-0.56527887 2:0.7 3:0.14 4:0.93 5:1 6:0.91 7:0.82 8:3 9:4 
1 1:2.0640294 2:0.93 3:0.52 4:0.61 5:0.62 6:0.86 7:1 8:1 9:6 
0.5199680541896987 1:24.368334 2:0.14 3:0.12 4:0.02 5:0.12 6:0.02 7:0.03 8:5 9:6 
1 1:-0.85435436 2:0.91 3:0.82 4:1 5:0.82 6:1 7:1 8:3 9:2 
1 1:0.060064361 2:0.82 3:1 4:1 5:1 6:1 7:0.85 8:2 9:1 
1 1:2.4703911 2:0.94 3:0.89 4:0.43 5:0.14 6:0.51 7:0.38 8:1 9:8 
1 1:2.6862212 2:0.94 3:0.89 4:0.43 5:0.38 6:0.24 7:0.37 8:1 9:10 
1 1:-0.56679588 2:0.89 3:0.43 4:0.52 5:0.52 6:0.53 7:0.18 8:2 9:4 
1 1:-1.8033833 2:0.89 3:0.43 4:0.52 5:0.51 6:0.38 7:0.24 8:2 9:9 
0.2786859079500074 1:5.248363 2:0.43 3:0.52 4:0.53 5:0.18 6:0.56 7:0.14 8:3 9:6 
1 1:0.18817125 2:0.52 3:0.53 4:0.18 5:0.53 6:0.18 7:0.56 8:4 9:5 
0.8557729567166055 1:6.197865 2:0.52 3:0.53 4:0.18 5:0.51 6:0.38 7:0.24 8:4 9:9 
1 1:2.5540719 2:0.53 3:0.18 4:0.56 5:0.18 6:0.56 7:0.14 8:5 9:6 
0.2327921458235755 1:27.325163 2:0.51 3:0.38 4:0.24 5:0.24 6:0.37 7:0.09 8:9 9:11 
1 1:-1.002819 2:0.24 3:0.37 4:0.09 5:0.1 6:0.89 7:0.83 8:11 9:1 
1 1:-0.47213825 2:0.95 3:0.88 4:0.92 5:0.88 6:0.92 7:1 8:7 9:6 
1 1:-0.25450033 2:0.41 3:0.17 4:0.18 5:0.16 6:0.07 7:0.11 8:2 9:9 
1 1:-0.51229441 2:0.06 3:0.14 4:0.2 5:0.28 6:0.15 7:0.21 8:14 9:7 
0.3797990275082911 1:1.5451325 2:0.14 3:0.2 4:0.1 5:1 6:0.93 7:0.3 8:13 9:10 
1 1:-0.86978319 2:0.14 3:0.2 4:0.1 5:0.3 6:0.28 7:0.15 8:13 9:8 
1 1:-1.2399312 2:0.14 3:0.2 4:0.1 5:0.14 6:0.48 7:0.18 8:13 9:2 
1 1:-1.5063408 2:0.2 3:0.1 4:1 5:0.93 6:0.3 7:0.28 8:12 9:9 
1 1:1.59098 2:0.2 3:0.1 4:1 5:0.08 6:0.23 7:0.27 8:12 9:4 
1 1:-1.1651641 2:0.1 3:1 4:0.93 5:0.28 6:0.38 7:0.24 8:11 9:2 
1 1:-1.1495979 2:1 3:0.93 4:0.3 5:0.28 6:0.38 7:0.24 8:10 9:2 
1 1:-0.65332373 2:1 3:0.93 4:0.3 5:0.24 6:0.3 7:0.19 8:10 9:4 
1 1:-0.66206477 2:1 3:0.93 4:0.3 5:0.14 6:0.48 7:0.18 8:10 9:2 
1 1:0.077885728 2:0.93 3:0.3 4:0.28 5:0.21 6:0.08 7:0.23 8:9 9:5 
1 1:-0.6849533 2:0.93 3:0.3 4:0.28 5:0.14 6:0.48 7:0.18 8:9 9:2 
1 1:0.26812442 2:0.3 3:0.28 4:0.15 5:0.21 6:0.08 7:0.23 8:8 9:5 
1 1:-1.1421348 2:0.3 3:0.28 4:0.15 5:0.14 6:0.48 7:0.18 8:8 9:2 
1 1:0.12713419 2:0.15 3:0.21 4:0.08 5:0.21 6:0.17 7:0.14 8:6 9:4 
1 1:-0.074523363 2:0.15 3:0.21 4:0.08 5:0.17 6:0.14 7:0.48 8:6 9:3 
1 1:1.3419035 2:0.21 3:0.08 4:0.23 5:0.17 6:0.09 7:0.99 8:5 9:2 
1 1:-0.21964174 2:0.08 3:0.23 4:0.27 5:0.17 6:0.09 7:0.99 8:4 9:2 
1 1:0.3131001 2:0.08 3:0.23 4:0.27 5:0.09 6:0.99 7:0.5 8:4 9:1 
1 1:-0.1931919 2:0.18 3:0.13 4:0.07 5:0.13 6:0.07 7:0.15 8:1 9:2 
1 1:0.28261984 2:0.13 3:0.07 4:0.15 5:0.15 6:0.96 7:0.34 8:2 9:4 
1 1:-0.20167884 2:0.13 3:0.07 4:0.15 5:0.96 6:0.34 7:0.89 8:2 9:5 
1 1:-0.90047884 2:0.07 3:0.15 4:0.96 5:0.2 6:0.2 7:0.21 8:3 9:6 
1 1:-0.92690952 2:0.15 3:0.96 4:0.34 5:0.15 6:0.75 7:0.18 8:4 9:5 
1 1:0.11018377 2:0.24 3:0.28 4:0.82 5:0.81 6:0.73 7:0.17 8:8 9:4 
1 1:0.57642964 2:0.93 3:0.82 4:0.99 5:0.82 6:0.99 7:0.33 8:1 9:2 
1 1:-0.99178083 2:0.93 3:0.82 4:0.99 5:0.37 6:0.27 7:0.8 8:1 9:1 
1 1:-0.32010501 2:0.12 3:0.29 4:0.68 5:0.1 6:0.49 7:0.08 8:6 9:2 
1 1:-1.4319189 2:0.12 3:0.29 4:0.68 5:0.23 6:0.5 7:0.54 8:6 9:7 
1 1:-0.3421726 2:0.68 3:0.81 4:0.1 5:0.81 6:0.1 7:0.49 8:4 9:3 
1 1:-1.2677892 2:0.68 3:0.81 4:0.1 5:0.97 6:0.39 7:0.23 8:4 9:7 
1 1:0.53509736 2:0.81 3:0.1 4:0.49 5:0.11 6:0.15 7:0.04 8:3 9:11 
1 1:-0.48965606 2:0.1 3:0.49 4:0.08 5:0.49 6:0.08 7:0.28 8:2 9:1 
1 1:-0.86372076 2:0.1 3:0.49 4:0.08 5:0.44 6:0.11 7:0.15 8:2 9:12 
1 1:-1.1352956 2:0.1 3:0.49 4:0.08 5:0.11 6:0.15 7:0.04 8:2 9:11 
1 1:-1.151051 2:0.49 3:0.08 4:0.28 5:0.17 6:0.44 7:0.11 8:1 9:13 
1 1:-0.32492508 2:0.37 3:0.27 4:0.8 5:0.27 6:0.8 7:0.25 8:1 9:2 
1 1:-0.71275691 2:0.27 3:0.8 4:0.25 5:0.8 6:0.25 7:0.04 8:2 9:3 
1 1:-1.2574727 2:0.17 3:0.17 4:0.44 5:0.35 6:0.13 7:0.2 8:14 9:9 
1 1:0.78836455 2:0.17 3:0.44 4:0.11 5:0.21 6:0.35 7:0.13 8:13 9:8 
1 1:-1.7727548 2:0.11 3:0.15 4:0.04 5:0.34 6:0.42 7:0.21 8:11 9:6 
1 1:-0.61377798 2:0.15 3:0.04 4:0.47 5:0.17 6:0.24 7:0.33 8:10 9:1 
1 1:-0.91936354 2:0.15 3:0.04 4:0.47 5:0.22 6:0.34 7:0.42 8:10 9:5 
1 1:2.1453789 2:0.15 3:0.04 4:0.47 5:0.34 6:0.42 7:0.21 8:10 9:6 
1 1:-0.50218905 2:0.04 3:0.47 4:0.4 5:0.22 6:0.34 7:0.42 8:9 9:5 
1 1:-1.597117 2:0.04 3:0.47 4:0.4 5:0.13 6:0.03 7:1 8:9 9:4 
1 1:-0.98317622 2:0.47 3:0.4 4:0.16 5:0.17 6:0.24 7:0.33 8:8 9:1 
1 1:0.81851252 2:0.4 3:0.16 4:0.95 5:0.36 6:0.09 7:0.1 8:7 9:3 
1 1:-1.4348751 2:0.4 3:0.16 4:0.95 5:0.31 6:0.25 7:0.13 8:7 9:2 
1 1:-1.4376408 2:0.4 3:0.16 4:0.95 5:0.03 6:1 7:0.97 8:7 9:5 
1 1:-1.3324525 2:0.16 3:0.95 4:0.3 5:0.81 6:0.26 7:0.04 8:6 9:7 
1 1:-1.6157484 2:0.16 3:0.95 4:0.3 5:0.04 6:0.14 7:1 8:6 9:5 
1 1:-0.92171611 2:0.16 3:0.95 4:0.3 5:0.03 6:1 7:0.97 8:6 9:5 
1 1:-2.0867479 2:0.95 3:0.3 4:0.36 5:0.81 6:0.26 7:0.04 8:5 9:7 
1 1:-1.4431837 2:0.95 3:0.3 4:0.36 5:0.04 6:0.14 7:1 8:5 9:5 
1 1:-0.98918393 2:0.3 3:0.36 4:0.09 5:0.04 6:0.14 7:1 8:4 9:5 
1 1:-1.1726342 2:0.36 3:0.09 4:0.1 5:0.04 6:0.14 7:1 8:3 9:5 
1 1:-1.551598 2:0.36 3:0.09 4:0.1 5:0.31 6:0.25 7:0.13 8:3 9:2 
1 1:2.0441221 2:0.24 3:0.33 4:0.26 5:0.22 6:0.34 7:0.42 8:2 9:5 
1 1:-0.83254231 2:0.26 3:0.22 4:0.34 5:0.2 6:0.29 7:0.03 8:4 9:3 
0.7052642312968825 1:10.093196 2:0.2 3:0.16 4:0.51 5:0.22 6:0.34 7:0.45 8:8 9:5 
1 1:3.6457447 2:0.2 3:0.16 4:0.51 5:0.34 6:0.45 7:0.57 8:8 9:4 
1 1:-0.67688856 2:0.77 3:0.11 4:0.37 5:0.2 6:0.29 7:0.03 8:1 9:3 
1 1:0.073022648 2:0.37 3:0.14 4:0.15 5:0.15 6:0.75 7:0.18 8:3 9:5 
1 1:0.99172653 2:0.37 3:0.14 4:0.15 5:0.19 6:0.21 7:0.2 8:3 9:5 
1 1:-0.44674837 2:0.37 3:0.14 4:0.15 5:0.2 6:0.29 7:0.03 8:3 9:3 
1 1:-0.1883601 2:0.14 3:0.15 4:0.75 5:0.21 6:0.2 7:0.29 8:4 9:4 
1 1:-0.16241064 2:0.17 3:0.41 4:0.18 5:0.41 6:0.18 7:0.17 8:5 9:6 
1 1:-0.13911555 2:0.41 3:0.18 4:0.17 5:0.18 6:0.17 7:0.17 8:6 9:7 
1 1:-0.79916219 2:0.18 3:0.17 4:0.17 5:0.17 6:0.17 7:0.26 8:7 9:8 
1 1:-1.1126174 2:0.17 3:0.17 4:0.26 5:0.08 6:0.12 7:0.29 8:8 9:7 
1 1:0.80578016 2:0.16 3:0.18 4:0.26 5:0.14 6:0.1 7:0.18 8:5 9:2 
0.9982833297707912 1:3.2247208 2:0.18 3:0.26 4:0.14 5:0.1 6:0.18 7:0.1 8:4 9:1 
1 1:-1.7750495 2:0.14 3:0.18 4:0.15 5:0.21 6:0.09 7:0.21 8:2 9:8 
1 1:-0.72652365 2:0.23 3:0.14 4:0.15 5:0.21 6:0.09 7:0.21 8:5 9:8 
1 1:-0.91612279 2:0.14 3:0.15 4:0.21 5:0.13 6:0.23 7:0.21 8:6 9:6 
1 1:-1.762712 2:0.15 3:0.21 4:0.29 5:0.27 6:0.13 7:0.23 8:7 9:5 
1 1:-0.41331274 2:0.08 3:0.12 4:0.29 5:0.3 6:0.37 7:0.65 8:7 9:2 
1 1:-1.8031099 2:0.12 3:0.29 4:0.31 5:0.29 6:0.31 7:0.16 8:6 9:5 
1 1:-0.39543584 2:0.31 3:0.16 4:0.3 5:0.34 6:0.27 7:0.16 8:4 9:6 
1 1:-0.83276866 2:0.3 3:0.37 4:0.65 5:0.16 6:0.2 7:0.34 8:2 9:8 
1 1:-0.60249594 2:0.23 3:0.21 4:0.09 5:0.21 6:0.09 7:0.21 8:7 9:8 
1 1:0.64323053 2:0.16 3:0.11 4:0.25 5:0.1 6:0.23 7:0.28 8:4 9:1 
0.5600668652265718 1:-0.34089819 2:0.11 3:0.25 4:0.1 5:0.25 6:0.1 7:0.23 8:3 9:2 
1 1:-0.88979492 2:0.25 3:0.1 4:0.23 5:0.1 6:0.23 7:0.28 8:2 9:1 
0.2402662873819765 1:4.3907655 2:0.68 3:0.3 4:0.68 5:0.3 6:0.68 7:0.2 8:1 9:2 
1 1:0.038465068 2:0.23 3:0.13 4:0.26 5:0.19 6:0.46 7:0.25 8:7 9:4 
1 1:-0.92090065 2:0.13 3:0.26 4:0.19 5:0.26 6:0.19 7:0.46 8:6 9:5 
1 1:-0.13566761 2:0.26 3:0.19 4:0.46 5:0.19 6:0.46 7:0.25 8:5 9:4 
1 1:-0.45990683 2:0.28 3:0.38 4:0.24 5:0.38 6:0.24 7:0.3 8:2 9:3 
1 1:-1.4212612 2:0.24 3:0.3 4:0.19 5:0.1 6:0.1 7:0.1 8:4 9:7 
1 1:-0.43735059 2:0.19 3:0.12 4:0.13 5:0.1 6:0.1 7:0.1 8:6 9:7 
1 1:-0.84258434 2:0.18 3:0.2 4:0.2 5:0.14 6:0.1 7:0.1 8:7 9:6 
0.1546144235476608 1:3.6176765 2:0.17 3:0.14 4:0.48 5:0.14 6:0.48 7:0.18 8:3 9:2 
1 1:-0.34540553 2:0.14 3:0.48 4:0.18 5:0.1 6:0.1 7:0.1 8:2 9:7 
1 1:-0.64414486 2:0.14 3:0.07 4:0.03 5:0.07 6:0.15 7:0.06 8:3 9:1 
0.9455268042598118 1:3.8553185 2:0.07 3:0.03 4:0.14 5:0.03 6:0.14 7:0.1 8:4 9:5 
1 1:0.50008631 2:0.14 3:0.1 4:0.1 5:0.15 6:0.23 7:0.07 8:6 9:3 
1 1:-0.38608105 2:0.07 3:0.15 4:0.06 5:0.09 6:0.67 7:0.36 8:1 9:1 
1 1:0.042694853 2:0.19 3:0.14 4:0.58 5:0.14 6:0.58 7:0.23 8:3 9:4 
1 1:0.39771144 2:0.75 3:0.23 4:0.86 5:0.26 6:0.2 7:0.11 8:7 9:10 
1 1:0.58464684 2:0.22 3:1 4:0.27 5:0.03 6:1 7:0.97 8:10 9:5 
1 1:0.50331925 2:0.22 3:1 4:0.27 5:1 6:0.97 7:0.39 8:10 9:6 
1 1:0.017976802 2:0.81 3:0.26 4:0.04 5:0.03 6:1 7:0.97 8:7 9:5 
1 1:-0.17643304 2:0.81 3:0.26 4:0.04 5:1 6:0.97 7:0.39 8:7 9:6 
0.9007623828354536 1:2.4043653 2:0.26 3:0.04 4:0.14 5:0.14 6:1 7:0.14 8:6 9:4 
0.2875694123248197 1:12.342879 2:0.25 3:0.13 4:0.03 5:0.13 6:0.03 7:1 8:3 9:4 
1 1:3.3244062 2:0.13 3:0.03 4:1 5:0.97 6:0.39 7:0.23 8:4 9:7 
1 1:2.4403157 2:0.27 3:0.37 4:0.24 5:0.29 6:0.16 7:0.08 8:1 9:6 
0.3295050825192853 1:9.9984679 2:0.08 3:0.07 4:0.08 5:0.07 6:0.08 7:0.08 8:2 9:1 
1 1:0.34713935 2:0.67 3:0.39 4:0.86 5:0.11 6:0.38 7:0.32 8:8 9:1 
1 1:0.32529845 2:0.39 3:0.86 4:0.09 5:0.11 6:0.38 7:0.32 8:9 9:1 
1 1:-1.0047641 2:0.86 3:0.09 4:0.65 5:0.05 6:0.11 7:0.38 8:10 9:2 
0.09086690819839646 1:-0.79914978 2:0.09 3:0.65 4:0.38 5:0.65 6:0.38 7:0.06 8:11 9:12 
1 1:-1.5670957 2:0.09 3:0.65 4:0.38 5:0.2 6:0.05 7:0.11 8:11 9:3 
1 1:0.14655254 2:0.01 3:0.33 4:0.8 5:0.11 6:0.26 7:0.15 8:3 9:6 
1 1:-0.57259864 2:0.8 3:0.88 4:0.09 5:0.11 6:0.26 7:0.15 8:5 9:6 
1 1:-0.29223905 2:0.88 3:0.09 4:0.86 5:0.25 6:0.11 7:0.26 8:6 9:5 
1 1:-1.5599817 2:0.09 3:0.86 4:0.32 5:0.49 6:0.25 7:0.11 8:7 9:4 
1 1:1.8665761 2:0.86 3:0.32 4:0.17 5:0.03 6:0.02 7:0.49 8:8 9:2 
1 1:1.8764216 2:0.32 3:0.17 4:0.27 5:0.98 6:0.03 7:0.02 8:9 9:1 
1 1:0.10532383 2:0.27 3:0.29 4:0.86 5:0.21 6:0.78 7:0.16 8:11 9:1 
1 1:-2.0809973 2:0.29 3:0.86 4:0.3 5:0.76 6:0.21 7:0.78 8:10 9:2 
1 1:-0.24179329 2:0.3 3:0.26 4:0.18 5:0.17 6:0.33 7:0.76 8:8 9:4 
1 1:0.23014002 2:0.26 3:0.18 4:0.17 5:0.17 6:0.33 7:0.76 8:7 9:4 
1 1:-0.47531787 2:0.03 3:0.02 4:0.49 5:0.02 6:0.49 7:0.25 8:2 9:3 
1 1:-1.0887044 2:0.89 3:0.17 4:0.32 5:0.69 6:0.79 7:0.41 8:14 9:8 
1 1:-2.097133 2:0.17 3:0.32 4:0.32 5:0.27 6:0.69 7:0.79 8:13 9:9 
1 1:-1.305614 2:0.32 3:0.32 4:0.06 5:0.32 6:0.06 7:0.27 8:12 9:11 
1 1:-2.6295101 2:0.06 3:0.27 4:0.69 5:0.27 6:0.69 7:0.79 8:10 9:9 
1 1:0.15357558 2:0.06 3:0.27 4:0.69 5:0.99 6:0.47 7:0.11 8:10 9:3 
1 1:0.46678473 2:0.69 3:0.79 4:0.41 5:0.06 6:0.28 7:0.99 8:8 9:5 
1 1:-0.8265088 2:0.41 3:1 4:0.15 5:1 6:0.15 7:1 8:6 9:5 
1 1:-0.38067762 2:1 3:0.15 4:1 5:0.15 6:1 7:0.22 8:5 9:4 
1 1:3.1880665 2:1 3:0.15 4:1 5:0.43 6:0.2 7:0.11 8:5 9:5 
1 1:-1.3442573 2:0.15 3:1 4:0.22 5:1 6:0.22 7:0.08 8:4 9:3 
1 1:-0.38651546 2:0.15 3:1 4:0.22 5:0.43 6:0.2 7:0.11 8:4 9:5 
1 1:2.515155 2:0.22 3:0.08 4:0.46 5:0.23 6:0.04 7:0.43 8:2 9:3 
1 1:-0.23665555 2:0.22 3:0.21 4:0.23 5:0.21 6:0.23 7:0.04 8:1 9:2 
1 1:-2.0463938 2:0.99 3:0.47 4:0.11 5:0.11 6:0.08 7:0.44 8:3 9:1 
1 1:-1.3610524 2:0.52 3:0.17 4:0.8 5:0.39 6:0.55 7:0.99 8:1 9:1 
0.3657768479373254 1:21.01421 2:0.67 3:0.34 4:0.8 5:0.34 6:0.8 7:0.08 8:4 9:5 
1 1:2.2209921 2:0.66 3:0.36 4:0.42 5:0.64 6:0.74 7:0.23 8:4 9:1 
1 1:2.2245869 2:0.66 3:0.36 4:0.42 5:0.16 6:0.86 7:0.14 8:4 9:14 
0.4784676208932444 1:5.2787426 2:0.39 3:0.55 4:0.99 5:0.55 6:0.99 7:0.19 8:1 9:2 
0.8748864192508086 1:5.281183 2:0.55 3:0.99 4:0.19 5:1 6:0.98 7:0.93 8:2 9:7 
1 1:5.2818698 2:0.55 3:0.99 4:0.19 5:0.17 6:0.72 7:0.4 8:2 9:10 
1 1:5.4018411 2:1 3:0.98 4:0.93 5:0.17 6:0.72 7:0.4 8:7 9:10 
1 1:2.6310137 2:1 3:0.98 4:0.93 5:0.3 6:0.58 7:0.92 8:7 9:2 
0.9449959973289742 1:5.400789 2:0.17 3:0.72 4:0.4 5:0.58 6:0.92 7:0.01 8:10 9:1 
0.954544077028374 1:8.8319559 2:0.72 3:0.4 4:0.65 5:0.87 6:0.3 7:0.58 8:11 9:3 
0.7110894717359297 1:75.343856 2:0.65 3:0.16 4:0.86 5:0.54 6:0.24 7:0.87 8:13 9:8 
0.5393686392016092 1:4.2517671 2:0.16 3:0.86 4:0.14 5:0.45 6:0.54 7:0.24 8:14 9:7 
1 1:0.11829416 2:0.87 3:0.3 4:0.58 5:0.58 6:0.92 7:0.01 8:3 9:1 
0.9049088121025525 1:2.631642 2:0.3 3:0.58 4:0.92 5:0.58 6:0.92 7:0.01 8:2 9:1 
0.9339540256782701 1:1.9078683 2:0.46 3:0.28 4:0.51 5:0.15 6:0.22 7:0.79 8:1 9:13 
1 1:0.23016419 2:0.25 3:1 4:0.23 5:0.91 6:0.95 7:0.29 8:7 9:1 
0.3027786696025162 1:3.279619 2:1 3:0.23 4:0.89 5:0.25 6:0.98 7:0.14 8:8 9:12 
0.1558922447010777 1:5.4001607 2:0.23 3:0.89 4:0.17 5:0.25 6:0.98 7:0.14 8:9 9:12 
0.1213545787289375 1:6.5588709 2:0.89 3:0.17 4:0.25 5:0.17 6:0.25 7:0.98 8:10 9:11 
0.4894919971115654 1:13.646783 2:0.22 3:0.79 4:0.19 5:0.96 6:0.36 7:0.44 8:12 9:8 
1 1:0.66222336 2:0.22 3:0.79 4:0.19 5:0.61 6:0.24 7:0.94 8:12 9:2 
1 1:-0.55839412 2:0.96 3:0.36 4:0.44 5:0.36 6:0.44 7:0.88 8:8 9:7 
1 1:0.22453678 2:0.44 3:0.88 4:0.81 5:0.1 6:0.89 7:0.45 8:6 9:2 
1 1:-2.6542737 2:0.88 3:0.81 4:0.16 5:0.61 6:0.24 7:0.94 8:5 9:2 
1 1:-2.1248799 2:0.61 3:0.24 4:0.94 5:0.24 6:0.94 7:0.28 8:2 9:1 
1 1:-1.1115966 2:0.29 3:0.06 4:0.87 5:0.69 6:0.48 7:0.62 8:2 9:5 
1 1:-2.1447241 2:0.06 3:0.87 4:0.69 5:0.87 6:0.69 7:0.48 8:3 9:4 
1 1:-0.88079127 2:0.06 3:0.87 4:0.69 5:1 6:0.98 7:0.98 8:3 9:8 
1 1:0.34346335 2:0.06 3:0.87 4:0.69 5:0.84 6:0.09 7:0.26 8:3 9:11 
1 1:-0.63682559 2:0.87 3:0.69 4:0.48 5:0.69 6:0.48 7:0.62 8:4 9:5 
1 1:-1.8764763 2:0.69 3:0.48 4:0.62 5:0.48 6:0.62 7:1 8:5 9:6 
1 1:-1.6483568 2:0.69 3:0.48 4:0.62 5:0.03 6:0.37 7:0.04 8:5 9:9 
1 1:-0.89086828 2:0.48 3:0.62 4:1 5:0.62 6:1 7:0.98 8:6 9:7 
1 1:0.93455402 2:0.62 3:1 4:0.98 5:0.98 6:0.98 7:0.84 8:7 9:9 
1 1:0.93666119 2:0.62 3:1 4:0.98 5:1 6:0.96 7:0.57 8:7 9:4 
1 1:-0.97661202 2:1 3:0.98 4:0.98 5:0.84 6:0.09 7:0.26 8:8 9:11 
1 1:0.9368307 2:0.98 3:0.98 4:0.84 5:1 6:0.96 7:0.57 8:9 9:4 
1 1:0.75949809 2:0.98 3:0.84 4:0.09 5:0.91 6:0.95 7:0.29 8:10 9:1 
0.661478142921973 1:1.5246028 2:0.23 3:0.33 4:0.15 5:0.12 6:0.31 7:0.46 8:8 9:5 
1 1:-6.0337112 2:0.23 3:0.33 4:0.15 5:0.46 6:0.1 7:0.89 8:8 9:3 
1 1:-1.8853025 2:0.91 3:0.95 4:0.29 5:0.95 6:0.29 7:1 8:1 9:2 
1 1:-1.8846741 2:0.95 3:0.29 4:1 5:0.29 6:1 7:0.96 8:2 9:3 
1 1:0.60051774 2:1 3:0.96 4:0.57 5:0.22 6:0.63 7:0.21 8:4 9:2 
1 1:-1.1606651 2:0.96 3:0.57 4:0.79 5:0.63 6:0.21 7:0.69 8:5 9:1 
1 1:0.93566459 2:0.57 3:0.79 4:0.96 5:0.69 6:0.65 7:0.56 8:6 9:8 
1 1:-0.98219412 2:0.03 3:0.56 4:0.37 5:0.59 6:0.32 7:0.69 8:6 9:6 
1 1:0.52518419 2:0.37 3:0.73 4:0.18 5:0.69 6:0.77 7:0.91 8:4 9:1 
1 1:-0.94229378 2:0.18 3:0.69 4:0.77 5:0.69 6:0.77 7:0.91 8:2 9:1 
1 1:-0.2664849 2:0.31 3:0.73 4:0.82 5:0.73 6:0.82 7:0.4 8:1 9:2 
1 1:-0.2659622 2:0.31 3:0.73 4:0.82 5:0.41 6:0.75 7:0.89 8:1 9:2 
1 1:-0.4602245 2:0.73 3:0.82 4:0.4 5:0.82 6:0.4 7:0.69 8:2 9:3 
1 1:0.047094578 2:0.82 3:0.4 4:0.69 5:0.4 6:0.69 7:0.59 8:3 9:4 
1 1:-1.1837548 2:0.32 3:0.69 4:0.65 5:0.04 6:0.42 7:0.74 8:7 9:7 
1 1:0.60354406 2:0.32 3:0.69 4:0.65 5:0.41 6:0.55 7:0.58 8:7 9:4 
1 1:-0.44976668 2:0.69 3:0.65 4:0.56 5:0.04 6:0.42 7:0.74 8:8 9:7 
0.5206657842778369 1:38.069143 2:1 3:0.03 4:0.37 5:0.04 6:0.42 7:0.74 8:10 9:7 
0.4973812618100415 1:55.849749 2:0.37 3:0.04 4:0.42 5:0.74 6:0.41 7:0.55 8:8 9:5 
1 1:-2.3424212 2:0.04 3:0.42 4:0.74 5:0.42 6:0.74 7:0.41 8:7 9:6 
1 1:-0.74630204 2:0.04 3:0.42 4:0.74 5:0.41 6:0.55 7:0.58 8:7 9:4 
1 1:-0.35597231 2:0.42 3:0.74 4:0.41 5:0.74 6:0.41 7:0.55 8:6 9:5 
1 1:2.551929 2:0.74 3:0.41 4:0.55 5:0.41 6:0.55 7:0.58 8:5 9:4 
1 1:0.82379895 2:0.41 3:0.55 4:0.58 5:0.73 6:0.46 7:0.46 8:4 9:1 
1 1:-1.055818 2:0.81 3:0.63 4:0.36 5:0.63 6:0.36 7:0.77 8:1 9:2 
1 1:-0.59722627 2:0.36 3:0.77 4:0.42 5:0.77 6:0.42 7:0.97 8:3 9:4 
1 1:0.48373634 2:0.36 3:0.77 4:0.42 5:0.42 6:0.97 7:0.97 8:3 9:5 
1 1:-0.014779092 2:0.97 3:0.97 4:0.43 5:0.96 6:0.6 7:0.24 8:6 9:2 
1 1:-0.30975204 2:0.97 3:0.43 4:0.92 5:0.96 6:0.6 7:0.24 8:7 9:2 
1 1:-1.9779771 2:0.35 3:0.22 4:0.63 5:0.22 6:0.63 7:0.21 8:3 9:2 
1 1:-3.6292275 2:0.35 3:0.22 4:0.63 5:0.63 6:0.21 7:0.69 8:3 9:1 
1 1:-1.2748702 2:0.96 3:0.6 4:0.24 5:0.6 6:0.24 7:0.13 8:2 9:3 
1 1:-1.1940612 2:0.94 3:0.64 4:0.97 5:0.44 6:0.92 7:0.52 8:6 9:1 
1 1:-2.113628 2:1 3:0.88 4:1 5:0.81 6:0.22 7:1 8:1 9:8 
1 1:0.93646245 2:0.22 3:1 4:0.88 5:0.41 6:0.75 7:0.89 8:7 9:2 
1 1:0.58041048 2:1 3:0.88 4:0.51 5:0.51 6:0.48 7:0.41 8:6 9:4 
1 1:0.28565351 2:0.88 3:0.51 4:0.48 5:0.51 6:0.48 7:0.41 8:5 9:4 
1 1:-1.396167 2:0.51 3:0.48 4:0.41 5:0.48 6:0.41 7:0.75 8:4 9:3 
1 1:-0.15697221 2:0.41 3:0.75 4:0.89 5:0.75 6:0.89 7:0.48 8:2 9:1 
1 1:-1.1080998 2:0.54 3:0.89 4:0.39 5:0.89 6:0.39 7:0.7 8:1 9:2 
1 1:0.93640546 2:0.47 3:0.26 4:0.7 5:0.7 6:0.41 7:0.82 8:5 9:7 
1 1:-1.2586997 2:0.68 3:0.04 4:0.22 5:0.6 6:0.74 7:0.53 8:10 9:2 
1 1:0.20024733 2:1 3:0.42 4:0.76 5:0.7 6:0.88 7:0.36 8:7 9:1 
1 1:0.9295652 2:0.76 3:0.92 4:0.79 5:0.7 6:0.88 7:0.36 8:5 9:1 
1 1:0.11887867 2:0.92 3:0.79 4:0.44 5:0.79 6:0.44 7:0.7 8:4 9:3 
1 1:0.7277254 2:0.92 3:0.79 4:0.44 5:0.7 6:0.88 7:0.36 8:4 9:1 
1 1:-1.9167639 2:0.44 3:0.7 4:0.88 5:1 6:0.1 7:1 8:2 9:1 
1 1:-0.19139567 2:0.49 3:0.27 4:0.4 5:0.4 6:0.24 7:0.68 8:6 9:8 
1 1:-2.401647 2:0.4 3:0.24 4:0.68 5:0.24 6:0.68 7:0.53 8:8 9:9 
1 1:-2.4777507 2:0.41 3:0.94 4:0.87 5:0.52 6:0.2 7:0.95 8:5 9:2 
1 1:0.31754018 2:0.94 3:0.87 4:0.97 5:0.71 6:0.52 7:0.2 8:4 9:1 
1 1:-0.51847624 2:0.71 3:0.52 4:0.2 5:0.69 6:1 7:1 8:1 9:6 
1 1:-1.0985021 2:0.95 3:0.47 4:0.02 5:0.86 6:0.7 7:0.87 8:4 9:3 
1 1:-0.69389164 2:0.47 3:0.02 4:0.34 5:0.06 6:0.86 7:0.7 8:5 9:2 
1 1:-0.81429118 2:0.02 3:0.34 4:0.98 5:0.34 6:0.98 7:0.56 8:6 9:7 
1 1:0.25399334 2:0.56 3:0.63 4:0.43 5:0.76 6:0.67 7:0.46 8:9 9:1 
0.0981734394067058 1:12.619676 2:0.43 3:0.75 4:0.1 5:0.75 6:0.1 7:0.46 8:11 9:12 
1 1:0.25399626 2:0.9 3:0.97 4:0.94 5:0.07 6:1 7:0.76 8:7 9:3 
1 1:0.24093238 2:0.97 3:0.94 4:1 5:1 6:0.76 7:0.67 8:6 9:2 
1 1:0.18027158 2:0.97 3:0.94 4:1 5:0.52 6:0.97 7:0.45 8:6 9:5 
0.7848646501562214 1:7.2676811 2:0.94 3:1 4:0.96 5:0.92 6:0.52 7:0.56 8:5 9:2 
1 1:-0.20680929 2:1 3:0.96 4:1 5:0.96 6:1 7:1 8:4 9:3 
1 1:1.578568 2:1 3:0.96 4:1 5:0.52 6:0.97 7:0.45 8:4 9:5 
1 1:-0.57223394 2:0.96 3:1 4:1 5:0.56 6:0.8 7:0.07 8:3 9:4 
1 1:-0.52460924 2:1 3:0.95 4:0.65 5:0.68 6:0.79 7:0.76 8:1 9:6 
1 1:1.0906922 2:0.56 3:0.8 4:0.07 5:0.52 6:0.97 7:0.45 8:4 9:5 
0.1063332843806405 1:5.0588633 2:0.8 3:0.07 4:1 5:1 6:0.76 7:0.67 8:5 9:2 
1 1:7.818585 2:0.07 3:1 4:0.36 5:1 6:0.76 7:0.67 8:6 9:2 
1 1:-0.46121452 2:0.07 3:1 4:0.36 5:0.45 6:0.06 7:0.55 8:6 9:7 
0.4725875538891307 1:60.608273 2:1 3:0.36 4:0.01 5:0.36 6:0.01 7:0.06 8:7 9:8 
1 1:2.1929208 2:1 3:0.76 4:0.67 5:0.52 6:0.97 7:0.45 8:2 9:5 
1 1:2.1929501 2:1 3:0.76 4:0.67 5:0.97 6:0.45 7:0.06 8:2 9:6 
1 1:-0.57119935 2:1 3:0.76 4:0.67 5:0.45 6:0.06 7:0.55 8:2 9:7 
1 1:-0.46126187 2:0.76 3:0.67 4:0.46 5:0.45 6:0.06 7:0.55 8:1 9:7 
1 1:0.019495315 2:0.68 3:0.06 4:0.86 5:0.42 6:1 7:0.52 8:1 9:3 
1 1:0.019550844 2:0.68 3:0.06 4:0.86 5:1 6:0.52 7:0.97 8:1 9:4 
0.4989217164366077 1:7.2203209 2:0.7 3:0.87 4:0.69 5:0.39 6:1 7:0.42 8:4 9:1 
0.1100066096880201 1:7.6613947 2:1 3:0.95 4:0.99 5:1 6:1 7:0.63 8:8 9:3 
1 1:7.4639753 2:1 3:0.95 4:0.99 5:0.63 6:0.97 7:0.42 8:8 9:1 
1 1:3.5263713 2:0.76 3:0.32 4:1 5:1 6:0.1 7:1 8:5 9:1 
1 1:-0.46870346 2:1 3:1 4:0.63 5:0.69 6:0.99 7:1 8:3 9:3 
1 1:-0.34975602 2:0.63 3:0.97 4:0.42 5:0.52 6:1 7:0.69 8:1 9:5 
1 1:-0.29786114 2:1 3:0.42 4:1 5:0.42 6:1 7:0.52 8:2 9:3 
0.4196086216758496 1:17.586623 2:1 3:0.52 4:0.97 5:0.97 6:0.45 7:0.06 8:4 9:6 
0.7120245231326329 1:12.392052 2:0.52 3:1 4:0.69 5:1 6:0.69 7:0.99 8:5 9:4 
1 1:6.5276286 2:0.99 3:0.25 4:0.99 5:0.7 6:0.68 7:0.79 8:6 9:7 
0.08304243889617126 1:29.865643 2:0.76 3:0.77 4:0.91 5:0.77 6:0.91 7:0.97 8:4 9:3 
0.04777136169220125 1:29.865496 2:0.77 3:0.91 4:0.97 5:0.91 6:0.97 7:0.62 8:3 9:2 
0.517244202323508 1:19.433393 2:0.91 3:0.97 4:0.62 5:0.97 6:0.62 7:0.97 8:2 9:1 
0.8747902738979639 1:18.957172 2:0.63 3:0.96 4:0.43 5:0.15 6:0.94 7:0.9 8:3 9:7 
0.01328635167003058 1:21.120882 2:0.98 3:0.15 4:0.94 5:0.15 6:0.94 7:0.9 8:6 9:7 
0.1373614278007095 1:30.425503 2:0.15 3:0.94 4:0.9 5:0.94 6:0.9 7:0.79 8:7 9:8 
0.153774028769687 1:27.879991 2:0.94 3:0.9 4:0.79 5:0.9 6:0.79 7:0.49 8:8 9:9 
1 1:-3.2384194 2:0.94 3:0.9 4:0.79 5:0.11 6:0.36 7:0.8 8:8 9:1 
0.2114020204611708 1:23.13923 2:0.9 3:0.79 4:0.49 5:0.79 6:0.49 7:0.67 8:9 9:10 
1 1:-3.8310312 2:0.9 3:0.79 4:0.49 5:0.93 6:0.98 7:0.52 8:9 9:5 
0.2357918068668179 1:3.444596 2:0.79 3:0.49 4:0.67 5:0.49 6:0.67 7:0.91 8:10 9:11 
1 1:-1.8876298 2:0.79 3:0.49 4:0.67 5:0.93 6:0.98 7:0.52 8:10 9:5 
1 1:-1.7694859 2:0.79 3:0.49 4:0.67 5:0.45 6:0.96 7:0.63 8:10 9:4 
1 1:1.7209871 2:0.49 3:0.67 4:0.91 5:0.52 6:0.68 7:0.23 8:11 9:7 
1 1:-2.5454684 2:0.49 3:0.67 4:0.91 5:0.98 6:0.98 7:0.45 8:11 9:6 
1 1:0.54774791 2:0.1 3:0.85 4:0.91 5:0.74 6:0.91 7:0.83 8:9 9:5 
1 1:0.43421527 2:0.85 3:0.91 4:0.37 5:0.8 6:0.74 7:0.91 8:8 9:4 
1 1:-2.4650842 2:0.91 3:0.37 4:0.24 5:0.89 6:0.8 7:0.74 8:7 9:3 
1 1:-0.55864275 2:0.37 3:0.24 4:0.43 5:0.4 6:0.89 7:0.8 8:6 9:2 
1 1:0.4242062 2:0.24 3:0.43 4:0.75 5:0.86 6:0.4 7:0.89 8:5 9:1 
1 1:-2.1295085 2:0.43 3:0.75 4:0.52 5:0.75 6:0.52 7:0.14 8:4 9:3 
1 1:0.57866488 2:0.91 3:0.83 4:0.14 5:0.79 6:0.7 7:0.6 8:6 9:1 
1 1:-4.1105168 2:0.1 3:0.43 4:0.63 5:0.43 6:0.63 7:0.89 8:6 9:5 
1 1:-1.0393982 2:0.43 3:0.63 4:0.89 5:0.63 6:0.89 7:0.73 8:5 9:4 
1 1:-3.1494626 2:0.43 3:0.63 4:0.89 5:0.89 6:0.73 7:0.79 8:5 9:3 
1 1:0.28534458 2:0.63 3:0.89 4:0.73 5:0.89 6:0.73 7:0.79 8:4 9:3 
1 1:1.6405361 2:0.8 3:0.94 4:0.66 5:0.37 6:0.9 7:0.41 8:2 9:4 
1 1:1.0752478 2:0.8 3:0.94 4:0.66 5:0.9 6:0.41 7:0.7 8:2 9:3 
1 1:1.4413582 2:0.94 3:0.66 4:0.95 5:0.7 6:0.37 7:0.9 8:3 9:5 
1 1:-0.36580861 2:0.66 3:0.95 4:0.43 5:0.95 6:0.43 7:0.79 8:4 9:5 
1 1:1.6403927 2:0.66 3:0.95 4:0.43 5:0.3 6:0.7 7:0.37 8:4 9:6 
1 1:2.9728805 2:0.95 3:0.43 4:0.79 5:0.26 6:0.3 7:0.7 8:5 9:7 
1 1:-0.7455609 2:0.43 3:0.79 4:0.71 5:0.58 6:0.26 7:0.3 8:6 9:8 
1 1:-1.1382513 2:0.79 3:0.71 4:0.5 5:0.37 6:0.58 7:0.26 8:7 9:9 
1 1:-0.45541694 2:0.7 3:0.37 4:0.9 5:0.9 6:0.41 7:0.7 8:5 9:3 
1 1:-1.1800164 2:0.7 3:0.37 4:0.9 5:0.41 6:0.7 7:0.9 8:5 9:2 
1 1:0.18672471 2:0.7 3:0.37 4:0.9 5:0.7 6:0.9 7:0.64 8:5 9:1 
1 1:-0.07374142 2:0.9 3:0.41 4:0.7 5:0.41 6:0.7 7:0.9 8:3 9:2 
1 1:-1.1949799 2:0.77 3:0.18 4:0.45 5:0.16 6:0.7 7:0.67 8:4 9:1 
1 1:-0.46688836 2:0.87 3:0.59 4:0.45 5:0.59 6:0.45 7:0.79 8:1 9:2 
0.665986769456732 1:11.798867 2:0.59 3:0.45 4:0.79 5:0.8 6:0.65 7:0.65 8:2 9:10 
1 1:-1.0827231 2:0.45 3:0.79 4:0.6 5:0.61 6:0.69 7:0.33 8:3 9:6 
1 1:9.1418237 2:0.45 3:0.79 4:0.6 5:0.66 6:0.8 7:0.65 8:3 9:9 
0.1555954943829659 1:6.4689922 2:0.66 3:0.8 4:0.65 5:0.8 6:0.65 7:0.65 8:9 9:10 
1 1:-0.38374465 2:0.11 3:0.36 4:0.8 5:0.68 6:0.77 7:0.75 8:1 9:5 
0.9586123761436517 1:11.226497 2:0.8 3:0.84 4:0.74 5:0.74 6:0.37 7:0.65 8:5 9:7 
1 1:-1.1483034 2:0.87 3:0.68 4:0.77 5:0.98 6:0.52 7:0.68 8:6 9:6 
1 1:-0.59102481 2:0.68 3:0.77 4:0.75 5:0.93 6:0.98 7:0.52 8:5 9:5 
1 1:-1.3710709 2:0.77 3:0.75 4:0.65 5:0.81 6:0.93 7:0.98 8:4 9:4 
1 1:-4.3605571 2:0.65 3:0.68 4:0.39 5:0.63 6:0.8 7:0.81 8:2 9:2 
1 1:-5.1108025 2:0.68 3:0.39 4:0.94 5:0.3 6:0.63 7:0.8 8:1 9:1 
1 1:-0.25497888 2:0.8 3:0.81 4:0.93 5:0.63 6:0.64 7:0.76 8:3 9:2 
1 1:1.5083433 2:0.93 3:0.98 4:0.52 5:0.45 6:0.96 7:0.63 8:5 9:4 
0.2409594585407964 1:0.34260548 2:0.98 3:0.52 4:0.68 5:0.98 6:0.45 7:0.96 8:6 9:5 
0.7150274233018936 1:1.6836478 2:0.52 3:0.68 4:0.23 5:0.98 6:0.98 7:0.45 8:7 9:6 
0.2891368332503554 1:16.331858 2:0.84 3:0.9 4:0.98 5:0.9 6:0.98 7:0.98 8:8 9:7 
1 1:-1.8663798 2:0.47 3:0.48 4:0.28 5:0.42 6:0.53 7:0.1 8:3 9:9 
1 1:-1.6027712 2:0.48 3:0.28 4:0.23 5:0.22 6:0.35 7:0.64 8:4 9:12 
1 1:-1.2126569 2:0.48 3:0.28 4:0.23 5:0.35 6:0.64 7:0.24 8:4 9:13 
1 1:-1.9911472 2:0.23 3:0.38 4:0.81 5:0.36 6:0.12 7:0.23 8:6 9:1 
1 1:-1.1492207 2:0.23 3:0.38 4:0.81 5:0.12 6:0.23 7:0.58 8:6 9:2 
1 1:-0.90748668 2:0.38 3:0.81 4:0.55 5:0.81 6:0.55 7:0.41 8:7 9:8 
1 1:-0.98819552 2:0.81 3:0.55 4:0.41 5:0.55 6:0.41 7:0.2 8:8 9:9 
1 1:-1.0479546 2:0.55 3:0.41 4:0.2 5:0.41 6:0.2 7:0.22 8:9 9:10 
1 1:-1.2049788 2:0.1 3:0.44 4:0.04 5:0.44 6:0.04 7:0.49 8:8 9:7 
1 1:0.52319477 2:0.44 3:0.04 4:0.49 5:0.87 6:0.13 7:0.38 8:7 9:4 
1 1:-1.3326341 2:0.04 3:0.49 4:0.87 5:0.49 6:0.87 7:0.13 8:6 9:5 
1 1:-1.1957461 2:0.49 3:0.87 4:0.13 5:0.87 6:0.13 7:0.38 8:5 9:4 
1 1:-1.1834041 2:0.87 3:0.13 4:0.38 5:0.79 6:0.97 7:0.16 8:4 9:1 
1 1:-1.2040034 2:0.13 3:0.38 4:0.79 5:0.38 6:0.79 7:0.97 8:3 9:2 
1 1:-1.7551174 2:0.13 3:0.38 4:0.79 5:0.37 6:0.42 7:0.21 8:3 9:5 
1 1:-0.87600867 2:0.38 3:0.79 4:0.97 5:0.79 6:0.97 7:0.16 8:2 9:1 
1 1:-1.1504324 2:0.19 3:0.28 4:0.7 5:0.28 6:0.7 7:0.16 8:4 9:5 
1 1:-1.7834739 2:0.28 3:0.7 4:0.16 5:0.7 6:0.16 7:0.93 8:5 9:6 
1 1:-0.62932106 2:0.7 3:0.16 4:0.93 5:0.16 6:0.93 7:0.56 8:6 9:7 
1 1:-1.4169816 2:0.3 3:0.2 4:0.34 5:0.2 6:0.34 7:0.09 8:6 9:5 
1 1:-1.3571539 2:0.34 3:0.09 4:0.26 5:0.09 6:0.26 7:0.63 8:4 9:3 
1 1:-0.94408211 2:0.09 3:0.26 4:0.63 5:0.26 6:0.63 7:0.19 8:3 9:2 
1 1:0.96864995 2:0.12 3:0.08 4:0.06 5:0.11 6:0.11 7:0.13 8:2 9:8 
1 1:1.4985101 2:0.06 3:0.15 4:0.13 5:0.11 6:0.11 7:0.13 8:4 9:8 
1 1:-0.3999595 2:0.09 3:0.9 4:0.23 5:0.5 6:0.02 7:0.26 8:6 9:9 
0.5693765027966032 1:3.4479938 2:0.9 3:0.23 4:0.5 5:0.23 6:0.5 7:0.02 8:7 9:8 
1 1:0.11727286 2:0.36 3:0.12 4:0.23 5:0.12 6:0.23 7:0.58 8:1 9:2 
1 1:-0.98312002 2:0.23 3:0.58 4:0.13 5:0.58 6:0.13 7:0.69 8:3 9:4 
1 1:1.2314481 2:0.3 3:0.15 4:0.33 5:0.22 6:0.24 7:0.45 8:9 9:6 
1 1:1.1650398 2:0.3 3:0.15 4:0.33 5:0.52 6:0.45 7:0.6 8:9 9:3 
1 1:2.0107317 2:0.15 3:0.33 4:0.22 5:0.45 6:0.52 7:0.45 8:8 9:4 
1 1:-1.9410373 2:0.24 3:0.45 4:0.52 5:0.35 6:0.07 7:0.73 8:5 9:4 
1 1:-1.4514557 2:0.52 3:0.45 4:0.6 5:0.21 6:0.29 7:0.35 8:3 9:6 
1 1:4.6323915 2:0.08 3:0.1 4:0.06 5:0.1 6:0.06 7:0.1 8:3 9:4 
1 1:-0.46003102 2:0.03 3:0.4 4:0.1 5:0.4 6:0.1 7:0.26 8:5 9:6 
1 1:-0.86390673 2:0.89 3:0.08 4:0.68 5:0.08 6:0.68 7:1 8:1 9:2 
1 1:-0.81866542 2:0.09 3:0.1 4:0.07 5:0.28 6:0.54 7:0.03 8:8 9:5 
1 1:-1.0221084 2:0.09 3:0.1 4:0.07 5:0.23 6:0.54 7:0.06 8:8 9:1 
1 1:-0.6899832 2:0.1 3:0.07 4:0.28 5:0.07 6:0.28 7:0.54 8:7 9:6 
1 1:-1.0440108 2:0.28 3:0.54 4:0.03 5:0.54 6:0.03 7:0.08 8:5 9:4 
1 1:-1.2195804 2:0.28 3:0.54 4:0.03 5:0.23 6:0.54 7:0.06 8:5 9:1 
1 1:-0.92898135 2:0.03 3:0.08 4:0.1 5:0.08 6:0.1 7:0.36 8:3 9:2 
1 1:-0.86509558 2:0.08 3:0.1 4:0.36 5:0.1 6:0.36 7:0.99 8:2 9:1 
1 1:-0.90712088 2:0.06 3:0.2 4:0.8 5:0.2 6:0.8 7:0.24 8:3 9:4 
1 1:-0.57271323 2:0.12 3:0.17 4:0.1 5:0.1 6:0.25 7:0.15 8:6 9:4 
1 1:-0.70549929 2:0.12 3:0.17 4:0.1 5:0.25 6:0.15 7:0.18 8:6 9:3 
1 1:-1.7155717 2:0.15 3:0.16 4:0.2 5:0.08 6:0.29 7:0.12 8:3 9:3 
1 1:-1.7124301 2:0.16 3:0.2 4:0.27 5:0.12 6:0.27 7:0.23 8:4 9:1 
1 1:2.7331942 2:0.71 3:0.08 4:0.42 5:0.08 6:0.42 7:0.55 8:6 9:5 
1 1:1.5702225 2:0.71 3:0.08 4:0.42 5:0.36 6:0.73 7:0.23 8:6 9:1 
1 1:1.984192 2:0.08 3:0.42 4:0.55 5:0.36 6:0.73 7:0.23 8:5 9:1 
1 1:-1.9171424 2:0.23 3:0.36 4:0.73 5:0.69 6:0.42 7:0.12 8:2 9:7 
1 1:-1.2030889 2:0.36 3:0.73 4:0.23 5:0.61 6:0.69 7:0.42 8:1 9:6 
0.9051005249873233 1:3.2858598 2:0.33 3:0.99 4:0.94 5:0.99 6:0.94 7:0.74 8:2 9:1 
1 1:-0.65286839 2:1 3:0.47 4:0.44 5:0.98 6:0.73 7:0.8 8:1 9:7 
1 1:-0.074941603 2:0.47 3:0.44 4:0.1 5:0.57 6:0.98 7:0.73 8:2 9:8 
0.7238486639597289 1:-2.7486122 2:0.75 3:0.54 4:0.32 5:0.54 6:0.32 7:0.47 8:13 9:14 
1 1:-0.43514143 2:0.73 3:0.8 4:0.55 5:0.8 6:0.55 7:0.83 8:6 9:5 
1 1:-0.503828 2:0.8 3:0.55 4:0.83 5:0.55 6:0.83 7:0.98 8:5 9:4 
0.2625201405858245 1:12.696759 2:0.03 3:0.8 4:0.13 5:0.8 6:0.13 7:0.02 8:1 9:2 
1 1:0.29404166 2:0.02 3:0.91 4:0.84 5:0.91 6:0.84 7:0.54 8:4 9:5 
1 1:-0.74557033 2:0.91 3:0.84 4:0.54 5:0.84 6:0.54 7:0.97 8:5 9:6 
1 1:-0.74480959 2:0.84 3:0.54 4:0.97 5:0.54 6:0.97 7:0.92 8:6 9:7 
1 1:0.42076588 2:0.54 3:0.97 4:0.92 5:0.66 6:0.96 7:0.27 8:7 9:2 
1 1:0.4207519 2:0.97 3:0.92 4:0.99 5:0.66 6:0.96 7:0.27 8:8 9:2 
1 1:0.42064702 2:0.92 3:0.99 4:0.63 5:1 6:0.66 7:0.96 8:9 9:3 
1 1:0.39953098 2:0.99 3:0.63 4:0.99 5:0.48 6:1 7:0.66 8:10 9:4 
1 1:0.37934488 2:0.63 3:0.99 4:0.29 5:0.59 6:0.48 7:1 8:11 9:5 
0.2655223689416056 1:5.9912967 2:0.51 3:0.06 4:0.04 5:0.04 6:0.27 7:0.1 8:3 9:5 
1 1:-1.5376212 2:0.07 3:0.05 4:0.93 5:0.05 6:0.93 7:0.03 8:6 9:5 
1 1:-0.6698826 2:0.05 3:0.93 4:0.03 5:0.93 6:0.03 7:0.92 8:5 9:4 
1 1:3.4644476 2:0.92 3:0.28 4:1 5:0.84 6:0.25 7:0.79 8:2 9:5 
1 1:0.38553985 2:0.28 3:1 4:0.84 5:0.25 6:0.79 7:0.4 8:3 9:6 
1 1:-0.061183313 2:0.28 3:1 4:0.84 5:0.62 6:0.64 7:0.5 8:3 9:7 
1 1:0.071671555 2:0.84 3:0.25 4:0.79 5:0.25 6:0.79 7:0.4 8:5 9:6 
0.1154110672717745 1:4.682172 2:0.08 3:0.14 4:0.76 5:0.76 6:0.14 7:0.32 8:8 9:6 
1 1:-0.73970958 2:0.14 3:0.76 4:0.14 5:0.76 6:0.14 7:0.32 8:7 9:6 
1 1:2.6158764 2:0.14 3:0.32 4:0.49 5:0.77 6:0.25 7:0.99 8:5 9:2 
1 1:5.8003434 2:0.64 3:0.5 4:0.46 5:0.09 6:0.19 7:0.66 8:6 9:2 
1 1:3.4176287 2:0.64 3:0.5 4:0.46 5:0.19 6:0.66 7:0.84 8:6 9:1 
1 1:2.5904882 2:0.5 3:0.46 4:0.42 5:0.09 6:0.19 7:0.66 8:5 9:2 
1 1:-0.39029431 2:0.46 3:0.42 4:0.09 5:0.42 6:0.09 7:0.19 8:4 9:3 
1 1:-1.566002 2:0.19 3:0.66 4:0.84 5:0.08 6:0.22 7:0.16 8:1 9:7 
1 1:0.31328383 2:0.85 3:1 4:0.2 5:0.35 6:0.98 7:0.28 8:1 9:2 
1 1:-2.2732286 2:1 3:0.2 4:0.97 5:0.37 6:0.35 7:0.98 8:2 9:1 
0.4123431566510072 1:11.782896 2:0.42 3:1 4:0.25 5:1 6:0.25 7:0.85 8:7 9:8 
1 1:2.0320108 2:0.25 3:0.85 4:0.99 5:0.68 6:1 7:0.36 8:9 9:1 
1 1:2.3872078 2:0.37 3:0.35 4:0.98 5:0.67 6:0.25 7:0.99 8:1 9:2 
1 1:-0.79864641 2:0.28 3:0.06 4:0.66 5:0.81 6:0.22 7:0.67 8:4 9:4 
0.2926246632550503 1:9.2325393 2:0.09 3:0.67 4:0.17 5:0.67 6:0.17 7:0.81 8:7 9:6 
1 1:6.3188821 2:0.67 3:0.25 4:0.99 5:0.25 6:0.99 7:0.34 8:2 9:1 
1 1:1.4918378 2:0.54 3:0.33 4:0.43 5:0.27 6:0.15 7:0.32 8:1 9:5 
1 1:1.5304146 2:0.33 3:0.43 4:0.6 5:0.6 6:0.27 7:0.15 8:2 9:4 
1 1:3.2560671 2:0.43 3:0.6 4:0.27 5:0.6 6:0.27 7:0.15 8:3 9:4 
1 1:-1.287963 2:0.6 3:0.27 4:0.15 5:0.18 6:0.41 7:0.37 8:4 9:6 
1 1:-0.72366288 2:0.15 3:0.32 4:0.41 5:0.28 6:0.54 7:0.18 8:6 9:8 
1 1:-1.3170743 2:0.04 3:0.97 4:0.13 5:0.18 6:0.2 7:0.18 8:6 9:7 
1 1:0.15109651 2:0.97 3:0.13 4:0.1 5:0.18 6:0.2 7:0.18 8:5 9:7 
1 1:0.43504039 2:0.1 3:0.12 4:0.08 5:0.09 6:0.3 7:0.18 8:3 9:5 
1 1:0.35849966 2:0.12 3:0.08 4:0.09 5:0.19 6:0.09 7:0.3 8:2 9:4 
1 1:-1.340364 2:0.09 3:0.31 4:0.43 5:0.99 6:0.17 7:0.51 8:1 9:5 
1 1:-0.53606531 2:0.09 3:0.31 4:0.43 5:0.17 6:0.51 7:0.86 8:1 9:6 
1 1:1.1196307 2:0.31 3:0.43 4:0.19 5:0.17 6:0.51 7:0.86 8:2 9:6 
1 1:-0.14539347 2:0.31 3:0.43 4:0.19 5:0.51 6:0.86 7:0.62 8:2 9:7 
1 1:-0.13650107 2:0.09 3:0.3 4:0.18 5:0.51 6:0.86 7:0.62 8:5 9:7 
1 1:-2.1891276 2:0.3 3:0.18 4:0.2 5:0.47 6:0.08 7:0.08 8:6 9:9 
0.8079488061959036 1:-0.014004296 2:0.18 3:0.2 4:0.18 5:0.12 6:0.47 7:0.08 8:7 9:8 
1 1:3.2132093 2:0.41 3:0.37 4:0.72 5:0.03 6:0.28 7:0.87 8:5 9:1 
1 1:1.9178015 2:0.37 3:0.72 4:0.66 5:0.66 6:0.03 7:0.28 8:4 9:2 
1 1:1.1366063 2:0.37 3:0.72 4:0.66 5:0.03 6:0.28 7:0.87 8:4 9:1 
1 1:-0.057661817 2:0.66 3:0.03 4:0.28 5:0.03 6:0.28 7:0.87 8:2 9:1 
1 1:-1.8514477 2:0.66 3:0.03 4:0.28 5:0.23 6:0.15 7:0.43 8:2 9:10 
0.4850768469095518 1:9.1552675 2:0.04 3:0.09 4:0.09 5:0.09 6:0.09 7:0.05 8:1 9:2 
1 1:-0.6418595 2:0.23 3:0.15 4:0.43 5:0.12 6:0.17 7:0.33 8:10 9:4 
1 1:-0.961531 2:0.15 3:0.43 4:0.51 5:0.11 6:0.12 7:0.17 8:9 9:5 
1 1:0.012907546 2:0.43 3:0.51 4:0.34 5:0.34 6:0.11 7:0.12 8:8 9:6 
1 1:-0.21188296 2:0.43 3:0.51 4:0.34 5:0.11 6:0.12 7:0.17 8:8 9:5 
1 1:-2.115801 2:0.34 3:0.11 4:0.12 5:0.11 6:0.12 7:0.17 8:6 9:5 
1 1:-0.56585988 2:0.17 3:0.33 4:0.93 5:0.33 6:0.93 7:0.14 8:3 9:2 
1 1:-2.1961381 2:0.33 3:0.93 4:0.14 5:0.93 6:0.14 7:0.17 8:2 9:1 
0.2881385928046037 1:1.7027606 2:0.28 3:0.13 4:0.2 5:0.13 6:0.2 7:0.38 8:13 9:12 
1 1:2.1520734 2:0.28 3:0.13 4:0.2 5:0.32 6:0.55 7:0.5 8:13 9:9 
0.6926246710512988 1:-0.43755935 2:0.13 3:0.2 4:0.38 5:0.2 6:0.38 7:0.32 8:12 9:11 
1 1:-2.7562109 2:0.13 3:0.2 4:0.38 5:0.38 6:0.32 7:0.55 8:12 9:10 
1 1:-0.80231537 2:0.2 3:0.38 4:0.32 5:0.38 6:0.32 7:0.55 8:11 9:10 
1 1:-0.76381037 2:0.38 3:0.32 4:0.55 5:0.32 6:0.55 7:0.5 8:10 9:9 
1 1:0.39458643 2:0.55 3:0.5 4:0.01 5:0.6 6:0.55 7:0.54 8:8 9:5 
1 1:-1.2088513 2:0.01 3:0.92 4:0.4 5:0.92 6:0.4 7:1 8:6 9:5 
1 1:-1.0154936 2:0.92 3:0.4 4:1 5:0.4 6:1 7:0.4 8:5 9:4 
1 1:-1.4902941 2:0.4 3:1 4:0.4 5:1 6:0.4 7:0.68 8:4 9:3 
1 1:-1.4265317 2:0.03 3:0.37 4:0.25 5:0.37 6:0.25 7:0.15 8:1 9:2 
1 1:-0.57822879 2:0.37 3:0.25 4:0.15 5:0.25 6:0.15 7:0.99 8:2 9:3 
1 1:0.16741121 2:0.99 3:0.17 4:0.51 5:0.51 6:0.86 7:0.62 8:5 9:7 
1 1:-0.56461485 2:0.51 3:0.86 4:0.62 5:0.86 6:0.62 7:0.99 8:7 9:8 
1 1:-2.148123 2:0.99 3:0.57 4:0.41 5:0.57 6:0.41 7:0.78 8:10 9:11 
1 1:-1.538269 2:1 3:0.6 4:0.55 5:0.6 6:0.55 7:0.54 8:6 9:5 
1 1:-0.41089172 2:0.6 3:0.55 4:0.54 5:0.55 6:0.54 7:0.09 8:5 9:4 
0.831867778331951 1:6.4613537 2:0.27 3:0.09 4:0.17 5:0.13 6:0.23 7:0.24 8:1 9:4 
1 1:-1.6705719 2:0.01 3:0.98 4:0.38 5:0.98 6:0.38 7:0 8:8 9:7 
1 1:-1.9533939 2:0 3:0.5 4:1 5:0.5 6:1 7:0.16 8:6 9:7 
1 1:-1.119669 2:0.34 3:0.91 4:0.24 5:0.14 6:0.58 7:0.31 8:6 9:6 
1 1:-1.344436 2:0.91 3:0.24 4:0.28 5:0.75 6:0.14 7:0.58 8:5 9:7 
1 1:-2.2976496 2:0.24 3:0.28 4:0.65 5:0.2 6:0.75 7:0.14 8:4 9:8 
1 1:-2.1476385 2:0.65 3:0.82 4:0.17 5:0.27 6:0.11 7:0.41 8:2 9:8 
1 1:-0.94109819 2:0.31 3:0.47 4:0.19 5:0.19 6:0.28 7:0.16 8:5 9:7 
1 1:-0.40536589 2:0.47 3:0.19 4:0.28 5:0.19 6:0.28 7:0.16 8:6 9:7 
1 1:-1.2572838 2:0.27 3:0.11 4:0.41 5:0.11 6:0.41 7:0.57 8:8 9:7 
0.06717825784449365 1:1.6673565 2:0.44 3:0.2 4:0.7 5:0.7 6:0.36 7:0.1 8:3 9:1 
0.1788997242669075 1:3.4787492 2:0.2 3:0.7 4:0.36 5:0.7 6:0.36 7:0.1 8:2 9:1 
1 1:-0.96887801 2:0.26 3:0.07 4:0.6 5:0.12 6:0.2 7:0.62 8:1 9:4 
1 1:-1.9082537 2:0.07 3:0.6 4:0.12 5:0.6 6:0.12 7:0.2 8:2 9:3 
1 1:-0.97483893 2:0.07 3:0.6 4:0.12 5:0.07 6:0.12 7:0.18 8:2 9:7 
1 1:-0.51602152 2:0.2 3:0.62 4:0.07 5:0.62 6:0.07 7:0.12 8:5 9:6 
1 1:-1.9973269 2:0.57 3:0.35 4:0.18 5:0.35 6:0.18 7:1 8:2 9:3 
1 1:-1.5134266 2:0.57 3:0.35 4:0.18 5:0.17 6:0.28 7:0.17 8:2 9:16 
1 1:-0.77866561 2:0.35 3:0.18 4:1 5:0.18 6:1 7:0.35 8:3 9:4 
1 1:0.031942839 2:0.18 3:1 4:0.35 5:1 6:0.35 7:0.93 8:4 9:5 
1 1:-1.0400855 2:1 3:0.35 4:0.93 5:0.35 6:0.93 7:0.22 8:5 9:6 
1 1:-0.70348196 2:0.35 3:0.93 4:0.22 5:0.93 6:0.22 7:1 8:6 9:7 
1 1:0.45208932 2:0.35 3:0.93 4:0.22 5:0.31 6:0.85 7:0.45 8:6 9:6 
1 1:-1.1599544 2:0.93 3:0.22 4:1 5:0.22 6:1 7:0.39 8:7 9:8 
1 1:0.17201279 2:0.22 3:1 4:0.39 5:0.59 6:1 7:0.31 8:8 9:4 
1 1:-0.24123877 2:0.39 3:0.14 4:0.38 5:0.62 6:0.81 7:0.59 8:10 9:2 
1 1:-1.4375191 2:0.14 3:0.38 4:0.17 5:0.64 6:0.62 7:0.81 8:11 9:1 
1 1:-1.8305632 2:0.49 3:0.11 4:0.21 5:0.11 6:0.21 7:0.59 8:3 9:2 
1 1:-1.6881166 2:0.11 3:0.21 4:0.59 5:0.21 6:0.59 7:0.78 8:2 9:1 
1 1:-0.46485835 2:0.64 3:0.62 4:0.81 5:0.62 6:0.81 7:0.59 8:1 9:2 
1 1:-1.8508414 2:0.62 3:0.81 4:0.59 5:0.14 6:0.58 7:0.31 8:2 9:6 
1 1:0.45336357 2:0.81 3:0.59 4:1 5:0.59 6:1 7:0.31 8:3 9:4 
1 1:-0.35854915 2:0.59 3:1 4:0.31 5:1 6:0.31 7:0.85 8:4 9:5 
1 1:-1.8417119 2:0.59 3:1 4:0.31 5:0.2 6:0.75 7:0.14 8:4 9:8 
0.1517725362097705 1:-0.56795525 2:0.17 3:0.28 4:0.17 5:0.28 6:0.17 7:0.13 8:16 9:15 
1 1:0.00033695198 2:0.07 3:0.13 4:0.07 5:0.09 6:0.12 7:0.12 8:11 9:1 
1 1:0.62570321 2:0.13 3:0.07 4:0.07 5:0.09 6:0.09 7:0.12 8:10 9:2 
1 1:0.94725601 2:0.07 3:0.07 4:0.36 5:0.29 6:0.09 7:0.09 8:9 9:3 
1 1:0.73458091 2:0.07 3:0.36 4:0.16 5:0.16 6:0.48 7:0.21 8:8 9:6 
1 1:0.99876276 2:0.07 3:0.36 4:0.16 5:0.48 6:0.21 7:0.29 8:8 9:5 
1 1:-0.90386162 2:0.17 3:0.38 4:0.77 5:0.38 6:0.77 7:0.18 8:1 9:2 
1 1:-0.65101452 2:0.17 3:0.38 4:0.77 5:0.18 6:0.42 7:0.23 8:1 9:4 
1 1:-0.87116681 2:0.12 3:0.66 4:0.2 5:0.38 6:0.17 7:0.58 8:1 9:1 
1 1:-1.4730183 2:0.73 3:0.54 4:0.08 5:0.85 6:0.43 7:0.14 8:4 9:12 
1 1:-2.1048775 2:0.54 3:0.08 4:0.83 5:0.27 6:0.57 7:0.47 8:5 9:9 
1 1:0.029159952 2:0.08 3:0.83 4:0.27 5:0.57 6:0.47 7:0.85 8:6 9:10 
1 1:-2.6258864 2:0.08 3:0.83 4:0.27 5:0.85 6:0.43 7:0.14 8:6 9:12 
1 1:-0.6049645 2:0.83 3:0.27 4:0.27 5:0.27 6:0.27 7:0.57 8:7 9:8 
1 1:-1.6736024 2:0.27 3:0.27 4:0.57 5:0.57 6:0.47 7:0.85 8:8 9:10 
1 1:1.9493183 2:0.99 3:0.12 4:0.81 5:0.12 6:0.81 7:0.74 8:8 9:7 
1 1:-0.70198625 2:0.74 3:0.18 4:0.05 5:0.09 6:0.02 7:0.57 8:5 9:2 
0.1158473658573771 1:7.5222514 2:0.69 3:0.44 4:0.47 5:0.98 6:0.47 7:0.68 8:3 9:8 
1 1:-1.9265932 2:0.44 3:0.47 4:0.95 5:0.47 6:0.95 7:0.36 8:4 9:5 
1 1:2.1420667 2:0.47 3:0.95 4:0.36 5:0.36 6:0.98 7:0.47 8:5 9:7 
1 1:1.5589589 2:0.86 3:0.09 4:0.39 5:0.11 6:0.9 7:0.71 8:5 9:1 
1 1:-1.5722104 2:0.09 3:0.39 4:1 5:0.39 6:1 7:0.16 8:4 9:3 
1 1:-2.0791942 2:0.39 3:1 4:0.16 5:1 6:0.16 7:1 8:3 9:2 
1 1:0.7875217 2:0.16 3:1 4:0.52 5:0.32 6:1 7:0.41 8:1 9:7 
1 1:-0.66453415 2:0.11 3:0.67 4:0.04 5:0.89 6:0.97 7:0.97 8:1 9:8 
1 1:-1.8303312 2:0.67 3:0.04 4:1 5:0.63 6:0.73 7:0.11 8:2 9:8 
1 1:-2.1357241 2:0.67 3:0.04 4:1 5:0.73 6:0.11 7:0.29 8:2 9:7 
1 1:0.47277082 2:0.04 3:1 4:0.2 5:0.89 6:0.97 7:0.97 8:3 9:8 
1 1:-0.67694247 2:1 3:0.2 4:0.96 5:0.2 6:0.96 7:0.32 8:4 9:5 
1 1:1.2363818 2:1 3:0.2 4:0.96 5:1 6:0.31 7:0.63 8:4 9:10 
1 1:0.13292844 2:0.2 3:0.96 4:0.32 5:0.34 6:1 7:0.31 8:5 9:11 
1 1:-1.5635634 2:0.96 3:0.32 4:1 5:0.32 6:1 7:0.41 8:6 9:7 
1 1:-0.33833175 2:0.96 3:0.32 4:1 5:1 6:0.34 7:1 8:6 9:12 
1 1:-1.562671 2:0.32 3:1 4:0.41 5:1 6:0.41 7:1 8:7 9:8 
1 1:0.78765531 2:0.32 3:1 4:0.41 5:0.78 6:1 7:0.34 8:7 9:13 
1 1:-1.6968662 2:1 3:0.34 4:1 5:0.34 6:1 7:0.31 8:12 9:11 
1 1:-2.1383821 2:0.31 3:0.63 4:0.73 5:0.89 6:0.97 7:0.97 8:9 9:8 
1 1:-0.47694583 2:0.63 3:0.73 4:0.11 5:0.73 6:0.11 7:0.29 8:8 9:7 
1 1:-2.4884415 2:0.11 3:0.29 4:0.99 5:0.29 6:0.99 7:0.52 8:6 9:5 
1 1:-1.0568807 2:0.11 3:0.29 4:0.99 5:0.88 6:0.89 7:0.97 8:6 9:7 
1 1:-0.18328747 2:0.29 3:0.99 4:0.52 5:0.88 6:0.89 7:0.97 8:5 9:7 
1 1:-1.6527723 2:0.11 3:0.89 4:0.58 5:0.76 6:0.56 7:0.08 8:2 9:1 
1 1:-0.5201287 2:0.76 3:0.56 4:0.08 5:0.79 6:0.95 7:0.03 8:1 9:4 
0.2797112532174394 1:-0.3223358 2:0.88 3:0.89 4:0.97 5:0.89 6:0.97 7:0.97 8:7 9:8 
1 1:-2.3157453 2:0.99 3:0.83 4:0.91 5:0.48 6:0.92 7:0.65 8:8 9:7 
1 1:1.9741092 2:0.91 3:1 4:0.7 5:1 6:0.7 7:0.87 8:6 9:5 
1 1:-0.53522607 2:1 3:0.7 4:0.87 5:0.7 6:0.87 7:0.87 8:5 9:4 
1 1:-1.0734025 2:0.24 3:0.95 4:0.17 5:0.95 6:0.17 7:0.66 8:6 9:7 
1 1:2.0374583 2:0.87 3:0.48 4:0.21 5:0.94 6:0.29 7:0.38 8:4 9:7 
1 1:-0.50217716 2:0.48 3:0.21 4:0.94 5:0.21 6:0.94 7:0.29 8:5 9:6 
1 1:-0.48294432 2:0.29 3:0.38 4:0.09 5:0.38 6:0.09 7:0.33 8:8 9:9 
0.5979433826120147 1:6.7196383 2:0.29 3:0.38 4:0.09 5:0.33 6:0.23 7:0.86 8:8 9:11 
1 1:-1.4617276 2:0.33 3:0.23 4:0.86 5:0.33 6:0.48 7:0.92 8:11 9:8 
1 1:-0.85112797 2:0.48 3:0.92 4:0.65 5:0.92 6:0.65 7:0.07 8:7 9:6 
1 1:-0.48684452 2:0.92 3:0.65 4:0.07 5:0.65 6:0.07 7:0.11 8:6 9:5 
1 1:-1.9480532 2:0.65 3:0.07 4:0.11 5:0.07 6:0.11 7:0.99 8:5 9:4 
1 1:-0.11447911 2:0.65 3:0.07 4:0.11 5:0.99 6:0.11 7:0.9 8:5 9:2 
1 1:-1.030054 2:0.07 3:0.11 4:0.99 5:0.11 6:0.99 7:0.11 8:4 9:3 
1 1:-0.0099995873 2:0.99 3:0.11 4:0.9 5:0.11 6:0.9 7:0.71 8:2 9:1 
1 1:0.18438918 2:0.66 3:0.94 4:0.84 5:0.67 6:0.99 7:0.43 8:3 9:6 
0.4132472487757711 1:5.9048558 2:0.94 3:0.84 4:0.61 5:0.61 6:0.23 7:1 8:4 9:6 
1 1:-2.0475928 2:0.94 3:0.84 4:0.61 5:0.33 6:0.67 7:0.99 8:4 9:5 
0.1348027418780877 1:7.2631449 2:0.09 3:0.11 4:0.2 5:0.11 6:0.2 7:0.23 8:9 9:8 
1 1:-0.0022449656 2:0.94 3:0.93 4:0.36 5:0.93 6:0.36 7:0.98 8:1 9:2 
1 1:-0.91468678 2:0.93 3:0.36 4:0.98 5:0.36 6:0.98 7:0.33 8:2 9:3 
0.1958966060931846 1:6.3499779 2:0.2 3:0.03 4:0.04 5:0.03 6:0.04 7:0.79 8:15 9:14 
0.449648580650152 1:6.7611151 2:0.2 3:0.03 4:0.04 5:0.97 6:0.1 7:0.15 8:15 9:10 
0.07404193925361977 1:5.9725183 2:0.03 3:0.04 4:0.79 5:0.04 6:0.79 7:0.19 8:14 9:13 
0.3391850419563955 1:3.3871416 2:0.03 3:0.04 4:0.79 5:0.19 6:0.97 7:0.1 8:14 9:11 
1 1:-0.45796194 2:0.97 3:0.1 4:0.15 5:0.16 6:0.6 7:0.08 8:10 9:7 
1 1:0.66912543 2:0.97 3:0.1 4:0.15 5:0.6 6:0.08 7:0.1 8:10 9:6 
1 1:-1.2361377 2:0.08 3:0.1 4:0.91 5:0.1 6:0.91 7:0.03 8:5 9:4 
1 1:0.71758923 2:0.08 3:0.1 4:0.91 5:0.91 6:0.03 7:0.99 8:5 9:3 
1 1:-1.6805279 2:0.46 3:0.97 4:0.32 5:0.97 6:0.32 7:0.49 8:2 9:3 
1 1:3.1491245 2:0.2 3:0.1 4:0.07 5:0.25 6:0.8 7:0.03 8:4 9:1 
0.1401498806844573 1:3.3756986 2:0.24 3:0.04 4:0.1 5:0.04 6:0.1 7:0.84 8:2 9:3 
1 1:2.2537243 2:0.26 3:0.59 4:0.04 5:0.04 6:0.61 7:0.08 8:6 9:8 
1 1:-0.16837757 2:0.59 3:0.04 4:0.61 5:0.06 6:0.19 7:0.1 8:7 9:4 
1 1:-2.4692155 2:0.59 3:0.04 4:0.61 5:0.1 6:0.57 7:0.55 8:7 9:2 
1 1:0.63209236 2:0.59 3:0.04 4:0.61 5:0.57 6:0.55 7:0.19 8:7 9:1 
0.8111990722262888 1:3.1776521 2:0.1 3:0.14 4:0.06 5:0.19 6:0.1 7:0.57 8:6 9:3 
1 1:-0.79087857 2:0.06 3:0.19 4:0.1 5:0.57 6:0.55 7:0.19 8:4 9:1 
0.06345367769989273 1:30.740368 2:0.44 3:0.58 4:0.1 5:0.58 6:0.1 7:0.07 8:7 9:6 
0.02944464929389492 1:11.874641 2:0.58 3:0.1 4:0.07 5:0.1 6:0.07 7:0.41 8:6 9:5 
1 1:-1.6623914 2:0.1 3:0.07 4:0.41 5:0.29 6:0.28 7:0.88 8:5 9:4 
1 1:-1.7704126 2:0.41 3:0.09 4:0.27 5:0.62 6:0.24 7:0.29 8:3 9:2 
1 1:-2.3155803 2:0.16 3:0.12 4:0.28 5:0.12 6:0.11 7:0.05 8:2 9:11 
1 1:0.47538408 2:0.28 3:0.22 4:0.21 5:0.21 6:0.77 7:0.06 8:4 9:6 
1 1:-0.10184658 2:0.21 3:0.77 4:0.06 5:0.43 6:0.14 7:0.07 8:6 9:9 
1 1:-0.6217988 2:0.43 3:0.14 4:0.07 5:0.04 6:0.37 7:0.06 8:9 9:3 
1 1:-0.81270953 2:1 3:0.17 4:1 5:0.17 6:1 7:0.36 8:9 9:8 
1 1:-0.67380029 2:0.17 3:1 4:0.36 5:1 6:0.36 7:0.93 8:8 9:7 
1 1:-1.6249882 2:0.17 3:1 4:0.36 5:0.03 6:0.42 7:0.22 8:8 9:5 
1 1:-0.81110032 2:1 3:0.36 4:0.93 5:0.36 6:0.93 7:0.74 8:7 9:6 
1 1:-0.77471547 2:1 3:0.36 4:0.93 5:0.93 6:0.74 7:0.86 8:7 9:5 
1 1:-1.9099661 2:0.36 3:0.93 4:0.74 5:0.25 6:0.03 7:0.11 8:6 9:6 
1 1:-0.41752849 2:0.93 3:0.74 4:0.86 5:0.74 6:0.86 7:0.25 8:5 9:4 
1 1:-1.9650564 2:0.03 3:0.85 4:0.23 5:0.85 6:0.23 7:0.03 8:5 9:6 
1 1:-0.40823374 2:0.85 3:0.23 4:0.03 5:0.23 6:0.03 7:0.25 8:6 9:7 
1 1:-1.379787 2:0.26 3:0.95 4:0.26 5:0.17 6:0.97 7:0.02 8:7 9:4 
1 1:-0.35249659 2:0.08 3:0.17 4:0.24 5:0.37 6:0.06 7:0.16 8:6 9:4 
1 1:-1.1709738 2:0.17 3:0.24 4:0.07 5:0.04 6:0.37 7:0.06 8:7 9:3 
1 1:-0.27685853 2:0.83 3:0.67 4:0.43 5:0.43 6:0.44 7:0.97 8:7 9:5 
1 1:0.11639459 2:0.83 3:0.67 4:0.43 5:0.44 6:0.97 7:0.09 8:7 9:4 
1 1:-1.8688764 2:0.43 3:0.44 4:0.97 5:0.36 6:0.2 7:0.15 8:5 9:10 
1 1:-1.131718 2:0.44 3:0.97 4:0.09 5:0.01 6:0.36 7:0.2 8:4 9:9 
1 1:-1.5944649 2:0.97 3:0.09 4:0.78 5:0.28 6:0.01 7:0.36 8:3 9:8 
1 1:-0.39383968 2:0.09 3:0.78 4:0.43 5:0.15 6:0.28 7:0.01 8:2 9:7 
1 1:-0.31666556 2:0.78 3:0.43 4:0.04 5:0.97 6:0.15 7:0.28 8:1 9:6 
1 1:-1.0739725 2:0.06 3:0.16 4:0.11 5:0.35 6:0.04 7:0.91 8:5 9:1 
1 1:-2.3648336 2:0.16 3:0.11 4:0.79 5:0.43 6:0.35 7:0.04 8:6 9:2 
1 1:-1.7204786 2:0.11 3:0.79 4:0.04 5:0.46 6:0.62 7:0.43 8:7 9:4 
1 1:-1.881516 2:0.11 3:0.79 4:0.04 5:0.62 6:0.43 7:0.35 8:7 9:3 
1 1:-0.72383729 2:0.62 3:0.43 4:0.35 5:0.43 6:0.35 7:0.04 8:3 9:2 
1 1:-1.0835248 2:0.02 3:0.23 4:0.06 5:0.01 6:0.77 7:0.42 8:1 9:1 
1 1:-2.5399501 2:0.23 3:0.06 4:0.53 5:0.59 6:0.01 7:0.77 8:2 9:2 
1 1:-1.3184458 2:0.06 3:0.53 4:0.02 5:0.29 6:0.59 7:0.01 8:3 9:3 
1 1:-1.4132043 2:0.53 3:0.02 4:0.97 5:0.68 6:0.29 7:0.59 8:4 9:4 
1 1:-1.0682107 2:0.02 3:0.97 4:0.15 5:0.1 6:0.68 7:0.29 8:5 9:5 
1 1:-1.6054415 2:0.97 3:0.15 4:0.28 5:0.83 6:0.1 7:0.68 8:6 9:6 
1 1:-1.2694653 2:0.82 3:0.19 4:0.79 5:0.16 6:0.64 7:0.06 8:10 9:4 
1 1:-1.9380666 2:0.19 3:0.79 4:0.71 5:0.49 6:0.16 7:0.64 8:9 9:3 
1 1:-1.6038945 2:0.79 3:0.71 4:0.32 5:0.07 6:0.49 7:0.16 8:8 9:2 
1 1:-1.0187348 2:0.71 3:0.32 4:0.01 5:0.14 6:0.07 7:0.49 8:7 9:1 
1 1:-0.60451025 2:0.02 3:0.03 4:0.07 5:0.44 6:0.16 7:0.02 8:7 9:8 
1 1:0.77141588 2:0.07 3:0.46 4:0.12 5:0.02 6:0.05 7:0.44 8:9 9:6 
1 1:-2.2035888 2:0.46 3:0.12 4:0.11 5:0.06 6:0.02 7:0.05 8:10 9:5 
1 1:-1.0228456 2:0.12 3:0.11 4:0.05 5:0.29 6:0.06 7:0.02 8:11 9:4 
1 1:-0.98303074 2:0.2 3:0.42 4:0.03 5:0.42 6:0.22 7:0.44 8:4 9:4 
1 1:-1.9025433 2:0.2 3:0.42 4:0.03 5:0.08 6:0.07 7:0.31 8:4 9:3 
1 1:-2.0595541 2:0.11 3:0.43 4:0.23 5:0.99 6:0.03 7:0.42 8:1 9:6 
1 1:-0.95038991 2:0.94 3:0.38 4:0.01 5:0.38 6:0.01 7:0.64 8:4 9:5 
1 1:-1.1495024 2:0.99 3:0.03 4:0.42 5:0.08 6:0.07 7:0.31 8:6 9:3 
1 1:-1.5710405 2:0.99 3:0.03 4:0.42 5:0.31 6:0.25 7:0.03 8:6 9:5 
1 1:-1.393506 2:0.03 3:0.42 4:0.22 5:0.07 6:0.31 7:0.25 8:5 9:4 
1 1:-0.08045141 2:0.42 3:0.22 4:0.44 5:0.08 6:0.07 7:0.31 8:4 9:3 
1 1:-0.042948476 2:0.22 3:0.44 4:0.25 5:0.25 6:0.18 7:0.06 8:3 9:1 
1 1:-0.86429826 2:0.22 3:0.44 4:0.25 5:0.97 6:0.93 7:0.16 8:3 9:5 
1 1:-1.0797155 2:0.25 3:0.18 4:0.06 5:0.2 6:0.09 7:0.08 8:1 9:1 
1 1:-1.4361681 2:0.25 3:0.18 4:0.06 5:0.97 6:0.93 7:0.16 8:1 9:5 
1 1:-1.7400398 2:0.2 3:0.09 4:0.08 5:0.97 6:0.93 7:0.16 8:1 9:5 
1 1:-1.7950194 2:0.09 3:0.08 4:0.07 5:0.87 6:0.33 7:0.97 8:2 9:3 
1 1:-1.7694889 2:0.07 3:0.31 4:0.25 5:0.21 6:0.99 7:0.87 8:4 9:1 
1 1:-0.52641658 2:0.31 3:0.25 4:0.03 5:0.99 6:0.87 7:0.33 8:5 9:2 
1 1:-1.5419185 2:0.31 3:0.25 4:0.03 5:0.87 6:0.33 7:0.97 8:5 9:3 
1 1:-1.5053142 2:0.25 3:0.03 4:0.11 5:0.21 6:0.99 7:0.87 8:6 9:1 
1 1:-0.44774296 2:0.5 3:0.08 4:0.93 5:0.08 6:0.93 7:0.93 8:8 9:7 
1 1:-0.96501386 2:0.5 3:0.08 4:0.93 5:0.5 6:0.51 7:0.38 8:8 9:3 
1 1:-2.1173811 2:0.08 3:0.93 4:0.93 5:0.93 6:0.93 7:0.33 8:7 9:6 
1 1:-0.32449739 2:0.08 3:0.93 4:0.93 5:0.33 6:0.5 7:0.51 8:7 9:4 
1 1:-0.7489002 2:0.93 3:0.93 4:0.33 5:0.93 6:0.33 7:0.5 8:6 9:5 
1 1:-2.0425686 2:0.93 3:0.33 4:0.5 5:0.33 6:0.5 7:0.51 8:5 9:4 
1 1:-1.0641187 2:0.33 3:0.5 4:0.51 5:0.76 6:0.21 7:0.86 8:4 9:2 
1 1:-2.1372089 2:0.5 3:0.51 4:0.38 5:0.16 6:0.76 7:0.21 8:3 9:3 
1 1:-1.3563809 2:0.51 3:0.38 4:0.48 5:0.85 6:0.16 7:0.76 8:2 9:4 
1 1:-0.58641709 2:0.38 3:0.48 4:0.19 5:0.92 6:0.85 7:0.16 8:1 9:5 
1 1:-1.7499318 2:0.99 3:0.87 4:0.33 5:0.87 6:0.33 7:0.97 8:2 9:3 
1 1:-0.8857718 2:0.1 3:0.56 4:0.83 5:0.56 6:0.83 7:0.02 8:8 9:9 
1 1:-1.7387504 2:0.4 3:0.16 4:0.75 5:0.16 6:0.75 7:0.78 8:9 9:8 
1 1:-1.6934381 2:0.75 3:0.78 4:0.92 5:0.37 6:0.69 7:0.39 8:7 9:7 
1 1:-1.6358451 2:0.78 3:0.92 4:0.85 5:0.88 6:0.37 7:0.69 8:6 9:6 
1 1:-1.5564249 2:0.92 3:0.85 4:0.16 5:0.78 6:0.88 7:0.37 8:5 9:5 
1 1:-1.2372733 2:0.85 3:0.16 4:0.76 5:0.16 6:0.76 7:0.21 8:4 9:3 
1 1:-2.1248054 2:0.85 3:0.16 4:0.76 5:0.77 6:0.78 7:0.88 8:4 9:4 
1 1:-1.4761277 2:0.21 3:0.86 4:0.28 5:0.15 6:0.15 7:0.16 8:1 9:1 
1 1:-0.71930224 2:0.15 3:0.15 4:0.16 5:1 6:0.17 7:0.16 8:1 9:13 
1 1:-1.4263438 2:0.15 3:0.16 4:0.77 5:0.1 6:1 7:0.17 8:2 9:14 
1 1:-0.88041648 2:0.16 3:0.77 4:0.78 5:0.77 6:0.78 7:0.88 8:3 9:4 
1 1:0.37412407 2:0.77 3:0.78 4:0.88 5:0.78 6:0.88 7:0.37 8:4 9:5 
1 1:-1.3901178 2:0.1 3:1 4:0.17 5:0.19 6:0.5 7:0.16 8:14 9:3 
1 1:-0.60476626 2:0.1 3:1 4:0.17 5:0.16 6:0.95 7:0.6 8:14 9:1 
1 1:-2.0576836 2:0.17 3:0.16 4:0.4 5:0.19 6:0.5 7:0.16 8:12 9:3 
1 1:-1.3579075 2:0.16 3:0.4 4:0.89 5:0.56 6:1 7:0.13 8:11 9:7 
1 1:-2.894974 2:0.16 3:0.4 4:0.89 5:0.16 6:0.19 7:0.5 8:11 9:4 
1 1:-1.9113929 2:0.89 3:0.06 4:0.56 5:0.06 6:0.56 7:1 8:9 9:8 
1 1:-1.3524451 2:0.89 3:0.06 4:0.56 5:1 6:0.13 7:0.16 8:9 9:6 
1 1:-1.3195263 2:0.06 3:0.56 4:1 5:0.56 6:1 7:0.13 8:8 9:7 
1 1:-1.5486819 2:0.56 3:1 4:0.13 5:0.16 6:0.19 7:0.5 8:7 9:4 
1 1:-0.38528684 2:0.13 3:0.16 4:0.19 5:0.16 6:0.19 7:0.5 8:5 9:4 
1 1:-2.2833282 2:0.39 3:0.07 4:0.79 5:0.07 6:0.79 7:0.11 8:3 9:4 
1 1:-1.7995472 2:0.56 3:0.84 4:0.63 5:0.13 6:0.24 7:0.26 8:8 9:5 
1 1:-2.3918748 2:0.43 3:0.52 4:0.25 5:0.52 6:0.25 7:0.3 8:1 9:2 
1 1:8.6847166 2:0.52 3:0.25 4:0.3 5:0.1 6:0.67 7:0.17 8:2 9:7 
1 1:3.2232929 2:0.25 3:0.3 4:0.71 5:0.12 6:0.1 7:0.67 8:3 9:8 
1 1:-3.677954 2:0.3 3:0.71 4:0.44 5:0.71 6:0.44 7:0.31 8:4 9:5 
1 1:-0.47331953 2:0.3 3:0.71 4:0.44 5:0.44 6:0.31 7:0.87 8:4 9:6 
1 1:-0.12218327 2:0.3 3:0.71 4:0.44 5:0.87 6:0.12 7:0.1 8:4 9:9 
0.7304330321469307 1:9.5446044 2:0.44 3:0.31 4:0.87 5:0.87 6:0.12 7:0.1 8:6 9:9 
1 1:-0.53561676 2:0.29 3:0.4 4:0.1 5:0.4 6:0.1 7:0.08 8:1 9:2 
1 1:-0.33525836 2:0.4 3:0.1 4:0.08 5:0.1 6:0.08 7:0.23 8:2 9:3 
1 1:-0.59187012 2:0.1 3:0.08 4:0.23 5:0.08 6:0.23 7:0.15 8:3 9:4 
1 1:-0.5511034 2:0.08 3:0.23 4:0.15 5:0.21 6:0.22 7:0.43 8:4 9:7 
1 1:-0.9950942 2:0.15 3:0.21 4:0.22 5:0.21 6:0.22 7:0.43 8:6 9:7 
1 1:-1.8895369 2:0.15 3:0.21 4:0.22 5:0.8 6:0.08 7:0.04 8:6 9:3 
1 1:-0.3731892 2:0.21 3:0.22 4:0.43 5:0.24 6:0.11 7:0.46 8:7 9:7 
1 1:-0.59413454 2:0.22 3:0.43 4:0.26 5:0.43 6:0.26 7:0.62 8:8 9:9 
1 1:-0.86201482 2:0.22 3:0.43 4:0.26 5:0.24 6:0.11 7:0.46 8:8 9:7 
1 1:-1.2842043 2:0.43 3:0.26 4:0.62 5:0.26 6:0.62 7:0.09 8:9 9:10 
1 1:-1.7473717 2:0.7 3:0.05 4:0.66 5:0.05 6:0.66 7:0.46 8:6 9:5 
1 1:-1.7720729 2:0.7 3:0.05 4:0.66 5:0.28 6:0.08 7:0.17 8:6 9:1 
1 1:-1.9744409 2:0.7 3:0.05 4:0.66 5:0.17 6:0.12 7:0.12 8:6 9:1 
1 1:-1.9664904 2:0.7 3:0.05 4:0.66 5:0.55 6:0.13 7:0.11 8:6 9:1 
1 1:-1.7242196 2:0.05 3:0.66 4:0.46 5:0.28 6:0.08 7:0.17 8:5 9:1 
1 1:-1.367845 2:0.46 3:0.08 4:0.11 5:0.08 6:0.11 7:0.6 8:3 9:2 
1 1:-0.70305533 2:0.98 3:0.8 4:0.86 5:0.8 6:0.86 7:0.93 8:1 9:2 
1 1:-0.40490538 2:0.98 3:0.8 4:0.86 5:0.91 6:1 7:0.24 8:1 9:5 
1 1:0.17520427 2:0.98 3:0.8 4:0.86 5:0.11 6:0.46 7:0.12 8:1 9:8 
1 1:-2.137691 2:0.98 3:0.8 4:0.86 5:0.21 6:0.38 7:0.11 8:1 9:5 
1 1:-0.15793706 2:0.8 3:0.86 4:0.93 5:0.86 6:0.93 7:0.91 8:2 9:3 
1 1:-1.6748184 2:0.8 3:0.86 4:0.93 5:0.21 6:0.38 7:0.11 8:2 9:5 
1 1:-1.7129642 2:0.8 3:0.86 4:0.93 5:0.38 6:0.11 7:0.06 8:2 9:4 
1 1:-1.6385005 2:0.8 3:0.86 4:0.93 5:0.11 6:0.06 7:0.26 8:2 9:3 
1 1:-0.36176352 2:0.86 3:0.93 4:0.91 5:0.93 6:0.91 7:1 8:3 9:4 
1 1:-0.14158965 2:0.93 3:0.91 4:1 5:0.91 6:1 7:0.24 8:4 9:5 
1 1:-0.33305823 2:0.93 3:0.91 4:1 5:0.11 6:0.46 7:0.12 8:4 9:8 
1 1:-0.72124213 2:0.91 3:1 4:0.24 5:1 6:0.24 7:0.11 8:5 9:6 
1 1:-0.1773525 2:0.91 3:1 4:0.24 5:0.11 6:0.46 7:0.12 8:5 9:8 
1 1:-0.49418571 2:1 3:0.24 4:0.11 5:0.24 6:0.11 7:0.46 8:6 9:7 
1 1:-1.242184 2:0.24 3:0.92 4:0.28 5:0.7 6:0.33 7:0.21 8:4 9:5 
1 1:-1.1435209 2:0.24 3:0.92 4:0.28 5:0.33 6:0.21 7:0.3 8:4 9:4 
1 1:-1.8548498 2:0.24 3:0.92 4:0.28 5:0.21 6:0.3 7:0.28 8:4 9:3 
1 1:-2.2865606 2:0.24 3:0.92 4:0.28 5:0.11 6:0.22 7:0.8 8:4 9:3 
1 1:-1.8801824 2:0.24 3:0.92 4:0.28 5:0.8 6:0.54 7:0.12 8:4 9:5 
1 1:-2.1947194 2:0.35 3:0.15 4:0.21 5:0.14 6:0.68 7:0.96 8:1 9:6 
1 1:-1.5577017 2:0.35 3:0.15 4:0.21 5:0.68 6:0.96 7:0.08 8:1 9:7 
1 1:-1.9571484 2:0.35 3:0.15 4:0.21 5:0.96 6:0.08 7:0.1 8:1 9:8 
1 1:-1.978818 2:0.21 3:0.11 4:0.16 5:0.06 6:0.05 7:0.14 8:3 9:4 
1 1:-2.0411327 2:0.21 3:0.11 4:0.16 5:0.05 6:0.14 7:0.68 8:3 9:5 
1 1:-1.023678 2:0.21 3:0.11 4:0.16 5:0.14 6:0.68 7:0.96 8:3 9:6 
1 1:-2.0819023 2:0.11 3:0.16 4:0.19 5:0.06 6:0.05 7:0.14 8:4 9:4 
1 1:-1.7158801 2:0.16 3:0.19 4:0.08 5:0.12 6:0.06 7:0.05 8:5 9:3 
1 1:-1.9808606 2:0.19 3:0.08 4:0.08 5:0.12 6:0.12 7:0.06 8:6 9:2 
1 1:-1.6629805 2:0.08 3:0.08 4:0.18 5:0.17 6:0.12 7:0.12 8:7 9:1 
1 1:-1.1746728 2:0.18 3:0.16 4:0.23 5:0.28 6:0.08 7:0.17 8:9 9:1 
1 1:-1.8684221 2:0.7 3:0.33 4:0.21 5:0.8 6:0.54 7:0.12 8:5 9:5 
1 1:-1.3676843 2:0.33 3:0.21 4:0.3 5:0.11 6:0.22 7:0.8 8:4 9:3 
1 1:-1.4476819 2:0.21 3:0.3 4:0.28 5:0.11 6:0.22 7:0.8 8:3 9:3 
1 1:-2.0526884 2:0.3 3:0.28 4:0.08 5:0.13 6:0.11 7:0.22 8:2 9:2 
1 1:-1.1884093 2:0.28 3:0.08 4:0.17 5:0.55 6:0.13 7:0.11 8:1 9:1 
1 1:0.41268274 2:0.14 3:0.68 4:0.96 5:0.21 6:0.14 7:0.08 8:6 9:2 
1 1:0.24216898 2:0.68 3:0.96 4:0.08 5:0.09 6:0.21 7:0.14 8:7 9:3 
1 1:-0.23495951 2:0.68 3:0.96 4:0.08 5:0.21 6:0.14 7:0.08 8:7 9:2 
1 1:-0.22145514 2:0.08 3:0.1 4:0.02 5:0.33 6:0.09 7:0.21 8:9 9:4 
1 1:0.025638192 2:0.08 3:0.1 4:0.02 5:0.09 6:0.21 7:0.14 8:9 9:3 
1 1:-1.7239609 2:0.08 3:0.1 4:0.02 5:0.07 6:0.07 7:0.1 8:9 9:8 
1 1:-1.0005767 2:0.1 3:0.02 4:0.78 5:0.13 6:0.29 7:0.33 8:10 9:6 
1 1:-1.6179893 2:0.1 3:0.02 4:0.78 5:0.15 6:0.19 7:0.07 8:10 9:6 
1 1:-1.1569396 2:0.1 3:0.02 4:0.78 5:0.19 6:0.07 7:0.07 8:10 9:7 
1 1:-2.2876571 2:0.33 3:0.09 4:0.21 5:0.08 6:0.1 7:0.09 8:4 9:2 
1 1:3.2902189 2:0.09 3:0.21 4:0.14 5:0.21 6:0.14 7:0.08 8:3 9:2 
1 1:-1.4097865 2:0.09 3:0.21 4:0.14 5:0.08 6:0.1 7:0.09 8:3 9:2 
1 1:-0.97312503 2:0.09 3:0.21 4:0.14 5:0.1 6:0.09 7:0.18 8:3 9:1 
1 1:-1.2938299 2:0.14 3:0.08 4:0.15 5:0.28 6:0.08 7:0.1 8:1 9:3 
0.05319199948924577 1:15.15282 2:0.08 3:0.1 4:0.09 5:0.1 6:0.09 7:0.18 8:2 9:1 
1 1:1.3698792 2:0.16 3:0.16 4:0.11 5:0.19 6:0.15 7:0.19 8:2 9:5 
1 1:-1.9594997 2:0.16 3:0.11 4:0.19 5:0.16 6:0.2 7:0.9 8:3 9:3 
1 1:-2.1632568 2:0.16 3:0.11 4:0.19 5:0.32 6:0.13 7:0.12 8:3 9:5 
1 1:-2.0397644 2:0.11 3:0.19 4:0.15 5:0.16 6:0.2 7:0.9 8:4 9:3 
0.440687309482709 1:10.242634 2:0.07 3:0.07 4:0.1 5:0.1 6:0.14 7:0.18 8:8 9:10 
1 1:0.23309344 2:0.13 3:0.75 4:0.14 5:0.03 6:0.32 7:0.15 8:9 9:2 
1 1:1.2797095 2:0.75 3:0.14 4:0.09 5:0.11 6:0.03 7:0.32 8:8 9:3 
1 1:0.67463052 2:0.14 3:0.09 4:0.38 5:0.21 6:0.11 7:0.03 8:7 9:4 
1 1:-0.15405825 2:0.09 3:0.38 4:0.21 5:0.38 6:0.21 7:0.11 8:6 9:5 
1 1:-1.7948045 2:0.03 3:0.32 4:0.15 5:0.71 6:0.09 7:0.23 8:2 9:3 
1 1:-2.1737717 2:0.1 3:0.14 4:0.19 5:0.04 6:0.2 7:0.24 8:1 9:5 
1 1:-2.3814091 2:0.15 3:0.19 4:0.16 5:0.96 6:0.2 7:0.8 8:5 9:1 
0.4510426847524505 1:2.3551273 2:0.5 3:0.35 4:0.3 5:0.27 6:0.15 7:0.27 8:7 9:4 
1 1:-1.1968098 2:0.08 3:0.04 4:0.16 5:0.26 6:0.31 7:0.11 8:1 9:1 
1 1:-1.2939049 2:0.21 3:0.2 4:0.18 5:0.24 6:0.13 7:0.14 8:4 9:7 
1 1:-2.3981423 2:0.21 3:0.2 4:0.18 5:0.13 6:0.14 7:0.09 8:4 9:8 
1 1:-2.1437771 2:0.18 3:0.1 4:0.11 5:0.09 6:0.37 7:0.18 8:6 9:10 
1 1:-0.35612747 2:0.18 3:0.1 4:0.11 5:0.37 6:0.18 7:0.07 8:6 9:11 
0.2024307238147187 1:4.7925943 2:0.1 3:0.11 4:0.14 5:0.11 6:0.14 7:0.14 8:7 9:8 
1 1:-1.8305245 2:0.2 3:0.8 4:0.08 5:0.13 6:0.3 7:0.13 8:2 9:2 
1 1:0.48894086 2:0.27 3:0.13 4:0.3 5:0.3 6:0.13 7:0.95 8:1 9:3 
1 1:0.44645618 2:0.95 3:0.71 4:0.62 5:0.71 6:0.62 7:0.24 8:5 9:6 
1 1:-1.9117286 2:0.13 3:0.46 4:0.24 5:0.11 6:0.08 7:0.05 8:4 9:6 
1 1:-2.0517587 2:0.13 3:0.46 4:0.24 5:0.08 6:0.05 7:0.15 8:4 9:7 
1 1:-1.7347286 2:0.46 3:0.24 4:0.12 5:0.11 6:0.08 7:0.05 8:3 9:6 
1 1:-2.1730288 2:0.12 3:0.04 4:0.09 5:0.18 6:0.19 7:0.11 8:1 9:4 
1 1:-0.66967834 2:0.2 3:0.74 4:0.09 5:0.15 6:0.04 7:0.79 8:8 9:2 
1 1:-0.91536801 2:0.74 3:0.09 4:0.08 5:0.63 6:0.15 7:0.04 8:7 9:1 
1 1:-0.3849399 2:0.63 3:0.15 4:0.04 5:0.15 6:0.04 7:0.79 8:1 9:2 
1 1:-0.36149564 2:0.04 3:0.79 4:0.24 5:0.2 6:0.9 7:0.14 8:3 9:4 
1 1:-0.77039149 2:0.14 3:0.15 4:0.17 5:0.15 6:0.17 7:0.03 8:6 9:5 
1 1:-0.44437559 2:0.15 3:0.17 4:0.03 5:0.17 6:0.03 7:0.05 8:5 9:4 
1 1:-2.0197243 2:0.29 3:0.76 4:0.16 5:0.01 6:0.21 7:0.64 8:1 9:2 
1 1:-1.2703142 2:0.29 3:0.76 4:0.16 5:0.21 6:0.64 7:0.51 8:1 9:1 
1 1:-1.1509785 2:0.16 3:0.2 4:0.9 5:0.2 6:0.9 7:0.14 8:3 9:4 
1 1:-0.70082305 2:0.14 3:0.4 4:0.37 5:0.36 6:0.32 7:0.13 8:6 9:6 
1 1:-1.2515095 2:0.27 3:0.27 4:0.81 5:0.27 6:0.81 7:0.19 8:5 9:4 
1 1:-0.90570737 2:0.27 3:0.27 4:0.81 5:0.68 6:0.21 7:0.1 8:5 9:7 
1 1:-3.5047272 2:0.27 3:0.81 4:0.19 5:0.81 6:0.19 7:0.75 8:4 9:3 
1 1:-1.278385 2:0.81 3:0.19 4:0.75 5:0.19 6:0.75 7:0.22 8:3 9:2 
1 1:-0.36964422 2:0.19 3:0.75 4:0.22 5:0.75 6:0.22 7:0.09 8:2 9:1 
1 1:0.67469502 2:0.19 3:0.75 4:0.22 5:0.27 6:0.48 7:0.13 8:2 9:4 
1 1:-1.2528637 2:0.22 3:0.21 4:0.07 5:0.03 6:0.02 7:0.75 8:1 9:2 
1 1:0.02991245 2:0.21 3:0.07 4:0.27 5:0.6 6:0.03 7:0.02 8:2 9:3 
1 1:-1.4344802 2:0.07 3:0.27 4:0.48 5:0.07 6:0.6 7:0.03 8:3 9:4 
1 1:0.43295206 2:0.56 3:0.67 4:0.43 5:0.67 6:0.43 7:0.26 8:5 9:6 
1 1:-1.3359139 2:0.54 3:0.45 4:0.47 5:0.51 6:0.4 7:0.7 8:9 9:1 
1 1:-0.57698406 2:0.36 3:0.11 4:0.55 5:0.32 6:0.27 7:0.19 8:6 9:3 
1 1:-1.9615017 2:0.55 3:0.27 4:0.22 5:0.31 6:0.58 7:0.32 8:4 9:1 
1 1:0.66929352 2:0.31 3:0.58 4:0.32 5:0.56 6:0.75 7:0.38 8:1 9:3 
1 1:-0.44531321 2:0.58 3:0.32 4:0.27 5:0.4 6:0.56 7:0.75 8:2 9:2 
1 1:-0.19778784 2:0.32 3:0.27 4:0.19 5:0.27 6:0.4 7:0.56 8:3 9:1 
1 1:1.5347717 2:0.14 3:0.12 4:0.34 5:0.24 6:0.08 7:0.31 8:6 9:1 
1 1:-0.75669144 2:0.12 3:0.34 4:0.46 5:0.46 6:0.28 7:0.24 8:5 9:3 
1 1:-2.3499687 2:0.46 3:0.28 4:0.24 5:0.17 6:0.41 7:0.35 8:3 9:2 
1 1:-1.6528415 2:0.28 3:0.24 4:0.08 5:0.32 6:0.17 7:0.41 8:2 9:1 
1 1:0.43832258 2:0.27 3:0.4 4:0.56 5:0.4 6:0.56 7:0.75 8:1 9:2 
1 1:-1.5906539 2:0.27 3:0.4 4:0.56 5:0.19 6:0.33 7:0.23 8:1 9:4 
1 1:-1.4056687 2:0.56 3:0.75 4:0.38 5:0.31 6:0.33 7:0.19 8:3 9:6 
1 1:-1.2393596 2:0.75 3:0.38 4:0.43 5:0.26 6:0.31 7:0.33 8:4 9:7 
1 1:-1.3705698 2:0.26 3:0.31 4:0.33 5:0.33 6:0.14 7:0.7 8:7 9:6 
1 1:-1.9360737 2:0.32 3:0.17 4:0.41 5:0.26 6:0.72 7:0.45 8:1 9:9 
1 1:-0.9532544 2:0.41 3:0.35 4:0.37 5:0.25 6:0.42 7:0.26 8:3 9:7 
1 1:-1.5223407 2:0.41 3:0.35 4:0.37 5:0.26 6:0.72 7:0.45 8:3 9:9 
1 1:1.6127757 2:0.35 3:0.37 4:0.65 5:0.65 6:0.25 7:0.42 8:4 9:6 
1 1:1.1906477 2:0.35 3:0.37 4:0.65 5:0.25 6:0.42 7:0.26 8:4 9:7 
1 1:-2.250087 2:0.42 3:0.26 4:0.72 5:0.33 6:0.1 7:0.74 8:8 9:12 
1 1:3.0082853 2:0.7 3:0.37 4:0.43 5:0.16 6:0.2 7:0.38 8:4 9:1 
1 1:-1.8523788 2:0.65 3:0.19 4:0.61 5:0.32 6:0.3 7:0.22 8:1 9:3 
1 1:-2.0786376 2:0.65 3:0.19 4:0.61 5:0.22 6:0.4 7:0.13 8:1 9:1 
1 1:-2.3348226 2:0.65 3:0.19 4:0.61 5:0.41 6:0.33 7:0.41 8:1 9:4 
1 1:-2.559301 2:0.65 3:0.19 4:0.61 5:0.33 6:0.41 7:0.58 8:1 9:5 
1 1:-1.4666665 2:0.61 3:0.1 4:0.31 5:0.3 6:0.22 7:0.4 8:3 9:2 
1 1:-1.3928137 2:0.1 3:0.31 4:0.26 5:0.32 6:0.3 7:0.22 8:4 9:3 
1 1:-1.3396753 2:0.26 3:0.95 4:0.33 5:0.36 6:0.5 7:0.32 8:6 9:5 
1 1:0.10362583 2:0.95 3:0.33 4:1 5:1 6:0.49 7:0.85 8:7 9:9 
1 1:-0.81920682 2:0.95 3:0.33 4:1 5:0.94 6:0.36 7:0.5 8:7 9:6 
1 1:-1.4195777 2:0.33 3:1 4:0.49 5:0.34 6:0.3 7:0.44 8:8 9:9 
1 1:-0.44639381 2:0.33 3:1 4:0.49 5:0.44 6:0.94 7:0.36 8:8 9:7 
1 1:-1.4636898 2:0.49 3:0.85 4:0.33 5:0.34 6:0.3 7:0.44 8:10 9:9 
1 1:-0.75603599 2:0.32 3:0.3 4:0.22 5:0.33 6:0.41 7:0.58 8:3 9:5 
1 1:-1.5049342 2:0.22 3:0.4 4:0.13 5:0.25 6:0.39 7:0.32 8:1 9:1 
1 1:1.4695814 2:0.39 3:0.32 4:0.41 5:0.33 6:0.41 7:0.58 8:2 9:5 
1 1:2.2010533 2:1 3:0.77 4:0.22 5:0.77 6:0.22 7:0.89 8:6 9:5 
1 1:-0.41789962 2:0.82 3:0.57 4:0.32 5:0.57 6:0.32 7:0.22 8:2 9:1 
0.2760745484211721 1:10.242231 2:1 3:0.98 4:1 5:0.98 6:1 7:1 8:1 9:2 
0.1370766109369236 1:10.243433 2:0.98 3:1 4:1 5:1 6:1 7:1 8:2 9:3 
0.07492518010276696 1:8.4891616 2:1 3:1 4:1 5:1 6:1 7:1 8:3 9:4 
1 1:-0.44560502 2:0.93 3:0.79 4:0.94 5:0.42 6:0.99 7:0.31 8:6 9:7 
0.1492055341407243 1:12.636724 2:1 3:0.21 4:1 5:0.96 6:1 7:1 8:3 9:3 
0.3415769727640097 1:14.341383 2:0.96 3:1 4:1 5:1 6:0.79 7:0.99 8:3 9:5 
0.096058566828434 1:14.341837 2:1 3:0.79 4:0.99 5:0.99 6:1 7:1 8:5 9:7 
1 1:0.18184818 2:0.93 3:0.87 4:1 5:0.87 6:1 7:1 8:3 9:2 
0.916778777370342 1:0.18297963 2:0.87 3:1 4:1 5:1 6:1 7:0.86 8:2 9:1 
1 1:-1.5752219 2:0.43 3:0.92 4:0.48 5:0.92 6:0.48 7:1 8:2 9:3 
1 1:-0.17371865 2:0.43 3:0.92 4:0.48 5:0.71 6:0.94 7:0.85 8:2 9:12 
1 1:0.3096058 2:0.48 3:1 4:0.55 5:0.16 6:1 7:1 8:4 9:9 
1 1:-0.92592535 2:0.55 3:1 4:0.81 5:0.81 6:0.16 7:1 8:6 9:8 
1 1:0.30989603 2:0.55 3:1 4:0.81 5:0.16 6:1 7:1 8:6 9:9 
1 1:-1.0831801 2:1 3:0.81 4:0.16 5:0.81 6:0.16 7:1 8:7 9:8 
1 1:-0.92552061 2:0.81 3:0.16 4:1 5:0.16 6:1 7:1 8:8 9:9 
1 1:-1.0008936 2:1 3:0.71 4:0.94 5:1 6:0.83 7:0.95 8:11 9:9 
1 1:0.2559469 2:0.71 3:0.94 4:0.85 5:1 6:1 7:0.83 8:12 9:8 
1 1:-1.0184266 2:0.99 3:0.15 4:1 5:0.15 6:1 7:0.76 8:6 9:5 
1 1:-0.92452294 2:0.76 3:0.86 4:0.42 5:0.86 6:0.42 7:0.71 8:3 9:2 
1 1:-0.95560384 2:0.86 3:0.42 4:0.71 5:0.42 6:0.71 7:0.03 8:2 9:1 
1 1:-1.5360973 2:0.87 3:0.72 4:1 5:0.72 6:1 7:0.7 8:2 9:3 
1 1:-0.13632657 2:0.72 3:1 4:0.7 5:1 6:0.7 7:0.53 8:3 9:4 
1 1:0.29520304 2:0.04 3:0.64 4:0.52 5:1 6:0.97 7:1 8:6 9:7 
0.8732252058232229 1:0.30933484 2:0.04 3:0.64 4:0.52 5:1 6:0.97 7:0.97 8:6 9:5 
1 1:-1.028596 2:0.64 3:0.52 4:0.96 5:0.52 6:0.96 7:0.9 8:5 9:4 
1 1:-1.0286754 2:0.64 3:0.52 4:0.96 5:1 6:0.97 7:0.97 8:5 9:5 
1 1:0.3094108 2:0.96 3:0.9 4:1 5:0.84 6:1 7:1 8:3 9:9 
1 1:0.30937679 2:0.96 3:0.9 4:1 5:0.97 6:1 7:0.97 8:3 9:6 
1 1:0.12827203 2:0.9 3:1 4:1 5:1 6:1 7:1 8:2 9:1 
1 1:0.30940853 2:0.84 3:1 4:1 5:0.97 6:1 7:0.97 8:9 9:6 
1 1:0.29521551 2:1 3:1 4:0.97 5:1 6:0.97 7:1 8:8 9:7 
1 1:0.29516789 2:1 3:0.97 4:1 5:1 6:0.97 7:0.97 8:7 9:5 
1 1:0.30949016 2:1 3:0.97 4:0.97 5:0.97 6:0.97 7:0.97 8:5 9:4 
1 1:-1.1546916 2:0.97 3:0.97 4:0.97 5:0.97 6:0.46 7:0.05 8:4 9:2 
1 1:-1.1547347 2:0.97 3:0.97 4:0.46 5:0.97 6:0.46 7:0.05 8:3 9:2 
0.1857063253832523 1:11.598351 2:0.97 3:0.46 4:0.05 5:0.46 6:0.05 7:0.05 8:2 9:1 
1 1:-0.36103698 2:0.33 3:1 4:0.99 5:1 6:0.99 7:0.7 8:1 9:2 
1 1:-0.26312333 2:0.33 3:1 4:0.99 5:0.99 6:0.7 7:1 8:1 9:3 
1 1:-0.69391549 2:0.33 3:1 4:0.99 5:1 6:0.71 7:0.47 8:1 9:5 
1 1:-1.3932147 2:1 3:0.99 4:0.7 5:0.99 6:0.7 7:1 8:2 9:3 
1 1:-0.29179908 2:0.99 3:0.7 4:1 5:0.7 6:1 7:0.71 8:3 9:4 
1 1:-2.2479139 2:0.99 3:0.7 4:1 5:1 6:0.71 7:0.47 8:3 9:5 
1 1:-0.72657339 2:0.7 3:1 4:0.71 5:1 6:0.71 7:0.47 8:4 9:5 
1 1:0.30937339 2:1 3:1 4:1 5:1 6:1 7:0.85 8:5 9:4 
1 1:0.30939833 2:1 3:1 4:0.85 5:1 6:0.85 7:1 8:4 9:3 
1 1:0.30936205 2:1 3:0.85 4:1 5:0.85 6:1 7:1 8:3 9:2 
1 1:-0.13796253 2:0.97 3:0.91 4:0.42 5:0.91 6:0.42 7:0.96 8:5 9:6 
1 1:-1.051496 2:0.42 3:0.96 4:0.74 5:0.96 6:0.74 7:0.8 8:7 9:8 
1 1:0.30931443 2:0.78 3:1 4:0.84 5:0.84 6:0.87 7:1 8:5 9:3 
1 1:0.30936318 2:0.78 3:1 4:0.84 5:0.87 6:1 7:0.41 8:5 9:2 
1 1:0.30937906 2:0.78 3:1 4:0.84 5:0.39 6:1 7:0.99 8:5 9:6 
1 1:-0.056971931 2:1 3:0.84 4:0.87 5:0.84 6:0.87 7:1 8:4 9:3 
1 1:-0.056923181 2:1 3:0.84 4:0.87 5:0.39 6:1 7:0.99 8:4 9:6 
1 1:0.30930877 2:0.87 3:1 4:0.41 5:0.39 6:1 7:0.99 8:2 9:6 
1 1:-0.41502636 2:1 3:0.41 4:1 5:0.83 6:0.39 7:1 8:1 9:5 
1 1:-0.36298732 2:0.39 3:0.38 4:1 5:0.38 6:1 7:1 8:1 9:2 
1 1:0.30932917 2:0.38 3:1 4:1 5:1 6:1 7:0.83 8:2 9:3 
1 1:-0.74911512 2:0.83 3:0.39 4:1 5:0.39 6:1 7:0.99 8:5 9:6 
1 1:-0.17375969 2:1 3:0.79 4:1 5:1 6:0.61 7:0.83 8:9 9:1 
1 1:-0.48396213 2:0.58 3:0.57 4:0.39 5:0.57 6:0.39 7:0.57 8:4 9:3 
1 1:-1.4495605 2:0.57 3:0.39 4:0.57 5:0.39 6:0.57 7:0.81 8:3 9:2 
1 1:-0.083127954 2:0.39 3:0.57 4:0.81 5:0.57 6:0.81 7:0.43 8:2 9:1 
1 1:0.1779856 2:0.61 3:0.83 4:0.97 5:0.83 6:0.97 7:1 8:2 9:3 
1 1:0.30932917 2:0.97 3:1 4:1 5:1 6:1 7:0.7 8:4 9:6 
1 1:-0.60556479 2:0.69 3:1 4:0.6 5:1 6:0.6 7:0.16 8:7 9:6 
1 1:-0.22196995 2:0.16 3:0.17 4:0.33 5:0.33 6:0.54 7:0.22 8:4 9:2 
0.9042290851575452 1:38.75987 2:0.63 3:0.99 4:1 5:1 6:0.65 7:0.31 8:1 9:3 
0.108721640351241 1:34.69991 2:1 3:0.65 4:0.31 5:0.65 6:0.31 7:0.24 8:3 9:4 
0.7430823225985533 1:22.469579 2:0.2 3:1 4:0.96 5:1 6:0.96 7:0.87 8:4 9:5 
0.04097423930109065 1:13.216961 2:0.5 3:0.55 4:0.56 5:0.7 6:0.63 7:0.82 8:5 9:1 
0.6991322383780453 1:15.264571 2:0.55 3:0.56 4:0.91 5:0.7 6:0.63 7:0.82 8:4 9:1 
1 1:-0.26497767 2:0.1 3:0.06 4:0.77 5:0.32 6:0.25 7:0.37 8:2 9:6 
1 1:1.8737409 2:0.06 3:0.77 4:0.1 5:0.27 6:0.57 7:0.64 8:3 9:9 
1 1:-0.70364458 2:0.77 3:0.1 4:0.36 5:0.1 6:0.36 7:0.73 8:4 9:5 
1 1:0.59616632 2:0.77 3:0.1 4:0.36 5:0.36 6:0.73 7:0.2 8:4 9:6 
1 1:-0.37396506 2:0.2 3:0.27 4:0.57 5:0.72 6:0.12 7:0.16 8:8 9:10 
1 1:-0.84505308 2:0.12 3:0.3 4:0.7 5:0.87 6:0.96 7:0.89 8:5 9:5 
1 1:-0.83382203 2:0.12 3:0.3 4:0.7 5:0.89 6:0.5 7:0.93 8:5 9:3 
1 1:-0.52248378 2:0.7 3:0.43 4:0.42 5:0.87 6:0.96 7:0.89 8:3 9:5 
1 1:-0.36185632 2:0.7 3:0.43 4:0.42 5:0.96 6:0.89 7:0.5 8:3 9:4 
1 1:0.60670743 2:0.16 3:0.15 4:0.18 5:0.12 6:0.16 7:0.22 8:5 9:11 
1 1:-1.0428809 2:0.16 3:0.15 4:0.18 5:0.19 6:0.26 7:0.06 8:5 9:5 
0.0436928391107176 1:1.6979699 2:0.18 3:0.21 4:0.65 5:0.21 6:0.65 7:0.72 8:7 9:8 
1 1:0.60083864 2:0.18 3:0.21 4:0.65 5:0.72 6:0.12 7:0.16 8:7 9:10 
1 1:1.3984652 2:0.72 3:0.12 4:0.16 5:0.11 6:0.29 7:0.16 8:10 9:5 
0.2357281872910985 1:2.3103323 2:0.12 3:0.16 4:0.22 5:0.16 6:0.22 7:0.22 8:11 9:12 
1 1:-0.98470487 2:0.22 3:0.81 4:0.47 5:0.25 6:0.4 7:0.22 8:14 9:6 
1 1:4.8198674 2:0.69 3:0.67 4:1 5:0.96 6:0.89 7:0.5 8:8 9:4 
0.6440632730505376 1:6.7689682 2:1 3:0.87 4:0.96 5:0.87 6:0.96 7:0.89 8:6 9:5 
0.1756471335552655 1:5.2836936 2:0.96 3:0.89 4:0.5 5:0.93 6:1 7:0.93 8:4 9:1 
1 1:-0.38123991 2:0.89 3:0.5 4:0.93 5:0.37 6:0.22 7:0.14 8:3 9:9 
1 1:-0.83854283 2:0.6 3:0.79 4:0.07 5:0.25 6:0.76 7:0.28 8:1 9:5 
1 1:-1.0809057 2:0.6 3:0.79 4:0.07 5:0.76 6:0.28 7:0.09 8:1 9:4 
1 1:-1.7721467 2:0.6 3:0.79 4:0.07 5:0.28 6:0.09 7:0.12 8:1 9:3 
1 1:1.8177865 2:0.79 3:0.07 4:0.93 5:0.86 6:0.05 7:0.15 8:2 9:6 
1 1:-0.51930486 2:0.79 3:0.07 4:0.93 5:0.25 6:0.76 7:0.28 8:2 9:5 
1 1:2.948755 2:0.93 3:0.46 4:0.86 5:0.46 6:0.86 7:0.05 8:4 9:5 
1 1:2.8246764 2:0.05 3:0.15 4:0.68 5:0.15 6:0.68 7:0.26 8:7 9:8 
1 1:1.2161879 2:0.17 3:0.14 4:0.38 5:0.44 6:0.22 7:0.9 8:7 9:1 
1 1:4.9690324 2:0.2 3:0.25 4:0.21 5:0.19 6:0.37 7:0.21 8:6 9:2 
1 1:4.9445791 2:0.25 3:0.21 4:0.04 5:0.19 6:0.37 7:0.21 8:5 9:2 
1 1:-0.3384423 2:0.37 3:0.21 4:0.49 5:0.64 6:0.11 7:0.2 8:1 9:8 
1 1:-1.9722837 2:0.18 3:0.12 4:0.01 5:0.22 6:0.6 7:0.2 8:1 9:5 
1 1:-0.68303439 2:0.12 3:0.01 4:0.03 5:0.25 6:0.22 7:0.6 8:2 9:4 
1 1:-0.8634188 2:0.01 3:0.03 4:0.38 5:0.23 6:0.25 7:0.22 8:3 9:3 
1 1:-0.63175849 2:0.03 3:0.38 4:0.25 5:0.25 6:0.23 7:0.25 8:4 9:2 
1 1:-1.0362927 2:0.11 3:0.36 4:0.45 5:0.36 6:0.45 7:0.68 8:2 9:1 
1 1:-0.31001974 2:0.11 3:0.36 4:0.45 5:0.16 6:0.12 7:0.11 8:2 9:3 
1 1:-1.1837698 2:0.19 3:0.17 4:0.11 5:0.19 6:0.26 7:0.06 8:7 9:5 
1 1:-1.4327042 2:0.17 3:0.11 4:0.29 5:0.5 6:0.19 7:0.26 8:6 9:4 
1 1:-0.65461576 2:0.11 3:0.29 4:0.16 5:0.04 6:0.5 7:0.19 8:5 9:3 
1 1:-1.1910228 2:0.29 3:0.16 4:0.12 5:0.25 6:0.04 7:0.5 8:4 9:2 
1 1:-1.8223108 2:0.16 3:0.12 4:0.11 5:0.12 6:0.11 7:0.12 8:3 9:2 
1 1:-1.0420635 2:0.25 3:0.04 4:0.5 5:0.01 6:0.12 7:0.01 8:2 9:1 
1 1:-0.63123624 2:0.04 3:0.5 4:0.19 5:0.22 6:0.3 7:0.85 8:3 9:7 
1 1:-1.9881958 2:0.5 3:0.19 4:0.26 5:0.48 6:0.01 7:0.12 8:4 9:2 
1 1:-0.49420968 2:0.19 3:0.26 4:0.06 5:0.22 6:0.48 7:0.01 8:5 9:3 
1 1:-0.47522346 2:0.26 3:0.06 4:0.88 5:0.34 6:0.22 7:0.48 8:6 9:4 
1 1:-0.7134892 2:0.06 3:0.88 4:0.06 5:0.32 6:0.34 7:0.22 8:7 9:5 
1 1:-1.4327819 2:0.88 3:0.06 4:0.84 5:0.06 6:0.84 7:0.13 8:8 9:9 
1 1:-0.50069853 2:0.06 3:0.84 4:0.13 5:0.2 6:0.53 7:0.32 8:9 9:7 
1 1:-1.1602724 2:0.22 3:0.48 4:0.01 5:0.48 6:0.01 7:0.12 8:3 9:2 
1 1:-1.0420635 2:0.48 3:0.01 4:0.12 5:0.01 6:0.12 7:0.01 8:2 9:1 
1 1:-1.6165147 2:0.48 3:0.01 4:0.12 5:0.85 6:0.07 7:0.51 8:2 9:9 
1 1:-0.6015552 2:0.15 3:0.13 4:0.13 5:0.13 6:0.13 7:0.22 8:4 9:5 
1 1:-0.37806098 2:0.13 3:0.13 4:0.22 5:0.13 6:0.22 7:0.3 8:5 9:6 
1 1:-0.85564964 2:0.13 3:0.13 4:0.22 5:0.22 6:0.3 7:0.85 8:5 9:7 
1 1:-1.1816406 2:0.13 3:0.22 4:0.3 5:0.22 6:0.3 7:0.85 8:6 9:7 
1 1:-0.37113546 2:0.3 3:0.85 4:0.07 5:0.07 6:0.51 7:0.16 8:8 9:10 
1 1:-1.1416788 2:0.07 3:0.51 4:0.16 5:0.36 6:0.34 7:0.25 8:10 9:7 
1 1:4.3307581 2:0.14 3:0.08 4:0.36 5:0.36 6:0.2 7:0.2 8:9 9:1 
1 1:1.9565065 2:0.08 3:0.36 4:0.34 5:0.06 6:0.36 7:0.2 8:8 9:2 
1 1:-2.2124847 2:0.14 3:0.06 4:0.36 5:0.84 6:0.78 7:0.42 8:3 9:2 
1 1:1.3476767 2:0.72 3:0.84 4:0.78 5:0.42 6:1 7:0.27 8:1 9:4 
0.5348648044988433 1:2.8119869 2:0.54 3:0.42 4:0.46 5:0.42 6:0.46 7:0.57 8:5 9:4 
1 1:-0.57997082 2:0.46 3:0.57 4:0.03 5:0.57 6:0.03 7:0.11 8:3 9:2 
1 1:-1.6819359 2:0.06 3:0.27 4:0.62 5:0.04 6:0.13 7:0.05 8:1 9:3 
1 1:-1.2437419 2:0.27 3:0.62 4:0.43 5:0.16 6:0.04 7:0.13 8:2 9:4 
1 1:-1.2321856 2:0.62 3:0.43 4:0.38 5:0.28 6:0.16 7:0.04 8:3 9:5 
1 1:-0.15440083 2:0.43 3:0.38 4:0.45 5:0.2 6:0.28 7:0.16 8:4 9:6 
1 1:0.25072448 2:0.85 3:0.43 4:0.47 5:0.43 6:0.47 7:0.13 8:1 9:2 
1 1:0.11402192 2:0.85 3:0.43 4:0.47 5:0.66 6:0.65 7:0.36 8:1 9:6 
1 1:0.82512759 2:0.85 3:0.43 4:0.47 5:0.36 6:0.2 7:0.17 8:1 9:8 
1 1:0.89465787 2:0.43 3:0.47 4:0.13 5:0.22 6:0.66 7:0.65 8:2 9:5 
1 1:-0.75996309 2:0.43 3:0.47 4:0.13 5:0.66 6:0.65 7:0.36 8:2 9:6 
1 1:1.5444993 2:0.43 3:0.47 4:0.13 5:0.65 6:0.36 7:0.2 8:2 9:7 
1 1:-0.53332619 2:0.47 3:0.13 4:0.22 5:0.13 6:0.22 7:0.66 8:3 9:4 
1 1:0.10060319 2:0.13 3:0.22 4:0.66 5:0.22 6:0.66 7:0.65 8:4 9:5 
1 1:-0.1357028 2:0.22 3:0.66 4:0.65 5:0.66 6:0.65 7:0.36 8:5 9:6 
1 1:-0.61846901 2:0.22 3:0.66 4:0.65 5:0.65 6:0.36 7:0.2 8:5 9:7 
1 1:-1.0940075 2:0.66 3:0.65 4:0.36 5:0.65 6:0.36 7:0.2 8:6 9:7 
1 1:-0.010502024 2:0.36 3:0.2 4:0.17 5:0.17 6:0.08 7:0.1 8:8 9:2 
1 1:-0.22886979 2:0.04 3:0.15 4:0.33 5:0.15 6:0.33 7:0.2 8:8 9:7 
1 1:-0.34936768 2:0.31 3:0.58 4:0.04 5:0.58 6:0.04 7:0.26 8:7 9:6 
1 1:-0.081193828 2:0.31 3:0.58 4:0.04 5:0.57 6:0.42 7:0.33 8:7 9:1 
1 1:-0.59099226 2:0.58 3:0.04 4:0.26 5:0.43 6:0.57 7:0.42 8:6 9:2 
1 1:0.21983038 2:0.04 3:0.26 4:0.21 5:0.34 6:0.43 7:0.57 8:5 9:3 
1 1:0.65899814 2:0.21 3:0.17 4:0.36 5:0.16 6:0.08 7:0.34 8:3 9:5 
1 1:0.30392345 2:0.36 3:0.19 4:0.29 5:0.04 6:0.68 7:0.16 8:1 9:7 
1 1:-0.24135406 2:0.03 3:0.2 4:0.32 5:0.2 6:0.32 7:0.25 8:4 9:5 
0.5067181078798256 1:0.94959477 2:0.03 3:0.2 4:0.32 5:0.32 6:0.25 7:0.37 8:4 9:6 
1 1:0.091276009 2:0.2 3:0.32 4:0.25 5:0.32 6:0.25 7:0.37 8:5 9:6 
1 1:-1.4687513 2:0.81 3:0.29 4:0.49 5:0.35 6:0.19 7:0.13 8:1 9:6 
1 1:-1.4687513 2:0.81 3:0.29 4:0.49 5:0.08 6:0.1 7:0.06 8:1 9:2 
1 1:-1.4687513 2:0.29 3:0.49 4:0.17 5:0.24 6:0.35 7:0.19 8:2 9:5 
1 1:-1.4687513 2:0.49 3:0.17 4:0.15 5:0.5 6:0.24 7:0.35 8:3 9:4 
1 1:-1.4687513 2:0.49 3:0.17 4:0.15 5:0.47 6:0.08 7:0.1 8:3 9:1 
1 1:-1.4687513 2:0.15 3:0.21 4:0.2 5:0.37 6:0.27 7:0.5 8:5 9:2 
1 1:-1.4687513 2:0.17 3:0.2 4:0.47 5:0.2 6:0.47 7:0.09 8:6 9:5 
1 1:-1.4687513 2:0.2 3:0.47 4:0.09 5:0.47 6:0.09 7:0.23 8:5 9:4 
1 1:-1.4687513 2:0.2 3:0.47 4:0.09 5:0.29 6:0.29 7:0.04 8:5 9:1 
1 1:-1.4687513 2:0.47 3:0.09 4:0.23 5:0.09 6:0.23 7:0.29 8:4 9:3 
1 1:-1.4687513 2:0.09 3:0.23 4:0.29 5:0.23 6:0.29 7:0.29 8:3 9:2 
1 1:-1.4687513 2:0.23 3:0.29 4:0.29 5:0.29 6:0.29 7:0.04 8:2 9:1 
1 1:-1.477848 2:0.35 3:0.19 4:0.13 5:0.47 6:0.08 7:0.1 8:6 9:1 
1 1:-0.88688716 2:0.07 3:0.12 4:0.08 5:0.09 6:0.82 7:0.83 8:3 9:2 
1 1:-1.6574128 2:0.08 3:0.09 4:0.82 5:0.09 6:0.82 7:0.83 8:1 9:2 
1 1:-2.3680205 2:0.83 3:0.04 4:0.14 5:0.04 6:0.44 7:0.05 8:4 9:3 
1 1:0.36416666 2:0.04 3:0.14 4:0.06 5:0.04 6:0.77 7:0.06 8:5 9:2 
1 1:-2.0214722 2:0.14 3:0.06 4:0.15 5:0.04 6:0.48 7:0.64 8:6 9:1 
0.6389180415038945 1:7.3454927 2:0.06 3:0.15 4:0.08 5:0.09 6:0.48 7:0.2 8:7 9:3 
1 1:-1.1696236 2:0.06 3:0.15 4:0.08 5:0.48 6:0.2 7:0.42 8:7 9:4 
0.6793851404060504 1:2.2063457 2:0.22 3:0.14 4:0.06 5:0.25 6:0.16 7:0.05 8:11 9:5 
1 1:5.2863371 2:0.48 3:0.2 4:0.42 5:0.07 6:0.23 7:0.28 8:4 9:7 
1 1:-0.40878432 2:0.42 3:0.07 4:0.23 5:0.04 6:0.77 7:0.06 8:6 9:2 
0.1732412104819655 1:4.6967002 2:0.28 3:1 4:0.29 5:1 6:0.29 7:0.04 8:9 9:10 
0.763957409251521 1:5.0971588 2:0.28 3:1 4:0.29 5:0.04 6:0.06 7:1 8:9 9:12 
1 1:-2.2258154 2:0.08 3:0.1 4:0.39 5:0.23 6:0.07 7:0.08 8:7 9:7 
1 1:-0.1545655 2:0.04 3:0.44 4:0.05 5:0.07 6:0.09 7:0.06 8:3 9:6 
1 1:-0.43715385 2:0.08 3:0.04 4:0.53 5:0.04 6:0.53 7:0.16 8:3 9:4 
0.5177225997915008 1:2.2777736 2:0.19 3:0.58 4:0.67 5:0.67 6:0.3 7:0.54 8:6 9:4 
1 1:-0.51850905 2:0.21 3:0.21 4:0.8 5:0.46 6:0.41 7:0.22 8:7 9:4 
1 1:-1.577917 2:0.79 3:0.11 4:0.1 5:0.28 6:0.15 7:0.18 8:6 9:7 
1 1:-0.94125608 2:0.1 3:0.11 4:0.22 5:0.18 6:0.16 7:0.28 8:4 9:5 
1 1:-2.5258951 2:0.16 3:0.28 4:0.15 5:0.32 6:0.07 7:0.1 8:6 9:5 
1 1:-2.5382523 2:0.16 3:0.28 4:0.15 5:0.07 6:0.1 7:0.17 8:6 9:6 
1 1:-0.84369362 2:0.19 3:0.25 4:0.16 5:0.81 6:0.56 7:0.14 8:5 9:4 
1 1:-1.1178369 2:0.16 3:0.1 4:0.1 5:0.28 6:0.08 7:0.81 8:3 9:2 
1 1:-0.21908996 2:0.1 3:0.1 4:0.21 5:0.37 6:0.28 7:0.08 8:2 9:1 
1 1:3.3040395 2:0.58 3:0.2 4:0.32 5:0.27 6:0.25 7:0.03 8:3 9:2 
1 1:0.46853583 2:0.34 3:0.59 4:0.46 5:0.34 6:0.84 7:0.5 8:5 9:6 
1 1:1.050966 2:0.46 3:0.58 4:0.29 5:0.34 6:0.84 7:0.5 8:3 9:6 
1 1:0.91258954 2:0.63 3:0.97 4:0.6 5:0.32 6:1 7:1 8:1 9:5 
1 1:0.91262011 2:0.63 3:0.97 4:0.6 5:1 6:1 7:0.54 8:1 9:4 
1 1:0.08378277 2:0.63 3:0.97 4:0.6 5:0.54 6:0.99 7:0.39 8:1 9:2 
1 1:0.72806926 2:0.98 3:0.89 4:0.8 5:0.32 6:1 7:1 8:5 9:5 
1 1:0.037325622 2:0.89 3:0.8 4:0.8 5:0.54 6:0.32 7:1 8:6 9:6 
1 1:-1.0193076 2:0.8 3:0.8 4:0.32 5:0.33 6:0.54 7:0.32 8:7 9:7 
1 1:0.65602675 2:0.96 3:0.25 4:0.89 5:0.5 6:0.99 7:0.83 8:7 9:5 
1 1:1.140449 2:0.89 3:0.14 4:0.9 5:0.56 6:0.26 7:0.5 8:5 9:3 
1 1:2.6412124 2:0.9 3:0.41 4:0.96 5:0.25 6:0.6 7:0.56 8:3 9:1 
1 1:-2.1071984 2:0.5 3:0.99 4:0.83 5:0.26 6:0.23 7:0.49 8:5 9:3 
1 1:2.2111093 2:0.33 3:0.54 4:0.32 5:0.98 6:0.84 7:0.44 8:7 9:2 
1 1:-0.62453865 2:0.54 3:0.32 4:1 5:0.51 6:0.98 7:0.84 8:6 9:1 
1 1:-1.74075 2:0.84 3:0.44 4:0.71 5:0.61 6:0.93 7:0.48 8:3 9:7 
1 1:-0.078410695 2:0.44 3:0.71 4:0.62 5:0.39 6:0.61 7:0.93 8:4 9:6 
1 1:3.3490863 2:0.71 3:0.62 4:0.64 5:0.18 6:0.39 7:0.61 8:5 9:5 
1 1:-1.8345508 2:0.71 3:0.62 4:0.64 5:0.78 6:0.96 7:0.96 8:5 9:7 
1 1:2.4814155 2:0.62 3:0.64 4:0.94 5:0.64 6:0.94 7:0.48 8:6 9:7 
1 1:2.2430161 2:0.62 3:0.64 4:0.94 5:0.46 6:0.18 7:0.39 8:6 9:4 
1 1:-3.1561983 2:0.39 3:0.26 4:0.23 5:0.28 6:0.13 7:0.08 8:4 9:4 
1 1:-2.1281436 2:0.26 3:0.23 4:0.49 5:0.62 6:1 7:0.78 8:3 9:5 
1 1:-0.71304688 2:0.26 3:0.23 4:0.49 5:1 6:0.78 7:0.96 8:3 9:6 
1 1:0.33794904 2:0.49 3:0.95 4:0.15 5:0.31 6:0.46 7:0.18 8:1 9:3 
0.9545109214930568 1:3.9752949 2:0.61 3:0.93 4:0.48 5:1 6:0.73 7:0.93 8:7 9:5 
0.6639433522152842 1:2.5075021 2:0.39 3:0.32 4:1 5:0.32 6:1 7:0.73 8:7 9:6 
0.8800042146493519 1:3.1051603 2:0.32 3:1 4:0.73 5:1 6:0.73 7:0.93 8:6 9:5 
0.09325387285998081 1:9.1647888 2:0.93 3:0.28 4:0.98 5:0.13 6:0.24 7:0.82 8:3 9:1 
1 1:-2.3974165 2:0.24 3:0.82 4:0.95 5:0.08 6:0.96 7:0.34 8:2 9:6 
1 1:-1.44684 2:0.24 3:0.82 4:0.95 5:0.34 6:0.26 7:0.15 8:2 9:8 
1 1:2.6866914 2:0.82 3:0.95 4:0.62 5:0.96 6:0.96 7:0.01 8:3 9:8 
0.2761662533931962 1:5.7091449 2:0.95 3:0.62 4:1 5:0.62 6:1 7:0.78 8:4 9:5 
1 1:0.048947551 2:0.94 3:0.09 4:0.34 5:0.08 6:0.88 7:0.67 8:7 9:1 
1 1:6.7154413 2:0.34 3:0.17 4:0.29 5:0.26 6:0.08 7:0.88 8:5 9:2 
1 1:-1.9198231 2:0.74 3:0.44 4:0.51 5:0.12 6:0.21 7:0.23 8:1 9:9 
1 1:-1.8708594 2:0.44 3:0.51 4:0.27 5:0.04 6:0.63 7:0.28 8:2 9:2 
0.3967032690354888 1:6.5561212 2:0.51 3:0.27 4:0.14 5:0.15 6:0.12 7:0.21 8:3 9:8 
1 1:-1.8537414 2:0.23 3:0.71 4:0.6 5:0.48 6:0.98 7:0.21 8:11 9:2 
1 1:-0.37532928 2:0.23 3:0.71 4:0.6 5:0.98 6:0.21 7:0.75 8:11 9:1 
1 1:0.82227352 2:0.6 3:0.35 4:0.9 5:0.98 6:0.21 7:0.75 8:13 9:1 
1 1:-0.64828504 2:0.35 3:0.9 4:0.28 5:0.48 6:0.98 7:0.21 8:14 9:2 
1 1:1.1724292 2:0.9 3:0.28 4:0.42 5:0.49 6:0.48 7:0.98 8:15 9:3 
1 1:3.8073424 2:0.86 3:0.56 4:0.45 5:0.81 6:0.11 7:0.84 8:10 9:7 
1 1:-0.68535784 2:0.45 3:0.59 4:0.99 5:0.59 6:0.89 7:0.81 8:8 9:5 
1 1:0.021901042 2:0.99 3:0.76 4:0.65 5:0.74 6:0.87 7:0.59 8:6 9:3 
1 1:-0.3343927 2:0.76 3:0.65 4:0.49 5:0.65 6:0.49 7:0.48 8:5 9:4 
1 1:-1.1885588 2:0.65 3:0.49 4:0.48 5:0.49 6:0.48 7:0.98 8:4 9:3 
1 1:-0.058676036 2:0.65 3:0.49 4:0.48 5:0.42 6:1 7:0.74 8:4 9:1 
1 1:-0.035071476 2:0.42 3:1 4:0.74 5:0.22 6:0.79 7:0.25 8:1 9:1 
1 1:-0.87571171 2:0.87 3:0.59 4:0.89 5:0.59 6:0.89 7:0.81 8:4 9:5 
1 1:1.1433713 2:0.59 3:0.89 4:0.81 5:0.88 6:1 7:0.02 8:5 9:1 
1 1:0.96393145 2:0.89 3:0.81 4:0.11 5:1 6:0.88 7:1 8:6 9:2 
1 1:-0.17885082 2:1 3:0.88 4:1 5:0.71 6:0.34 7:0.35 8:2 9:8 
1 1:0.23747224 2:0.88 3:1 4:0.02 5:0.14 6:0.71 7:0.34 8:1 9:7 
1 1:3.9995536 2:0.22 3:0.79 4:0.25 5:0.43 6:0.64 7:0.99 8:1 9:1 
1 1:-1.3622915 2:0.79 3:0.25 4:0.41 5:0.25 6:0.41 7:0.6 8:2 9:3 
1 1:-0.26903234 2:0.25 3:0.41 4:0.6 5:0.31 6:0.65 7:0.36 8:3 9:7 
0.924086575213878 1:2.192041 2:0.25 3:0.41 4:0.6 5:0.43 6:0.64 7:0.99 8:3 9:1 
1 1:-1.2274515 2:0.41 3:0.6 4:0.99 5:0.6 6:0.99 7:0.31 8:4 9:5 
1 1:-0.097845788 2:0.6 3:0.99 4:0.31 5:0.99 6:0.31 7:0.65 8:5 9:6 
1 1:0.39864473 2:0.99 3:0.31 4:0.65 5:0.31 6:0.65 7:0.36 8:6 9:7 
1 1:-0.44796481 2:0.27 3:0.45 4:0.38 5:0.49 6:0.78 7:0.68 8:7 9:4 
1 1:-2.0157392 2:0.45 3:0.38 4:0.21 5:0.49 6:0.78 7:0.68 8:6 9:4 
1 1:14.236498 2:0.38 3:0.21 4:0.4 5:0.27 6:0.1 7:0.2 8:5 9:1 
1 1:7.9969714 2:0.25 3:0.22 4:0.14 5:0.01 6:0.17 7:0.22 8:5 9:1 
1 1:-1.6056153 2:0.14 3:0.71 4:0.34 5:0.71 6:0.34 7:0.35 8:7 9:8 
1 1:-0.2262678 2:0.14 3:0.71 4:0.34 5:0.74 6:0.99 7:0.01 8:7 9:3 
1 1:-1.4258716 2:0.45 3:0.34 4:0.94 5:0.34 6:0.94 7:0.74 8:6 9:5 
1 1:0.13544258 2:0.34 3:0.94 4:0.74 5:0.94 6:0.74 7:0.99 8:5 9:4 
1 1:-0.68059596 2:0.99 3:0.01 4:0.17 5:0.97 6:0.54 7:0.67 8:2 9:1 
1 1:-0.8124697 2:0.01 3:0.17 4:0.22 5:0.78 6:0.68 7:0.97 8:1 9:3 
1 1:-0.75296127 2:0.01 3:0.17 4:0.22 5:0.68 6:0.97 7:0.54 8:1 9:2 
1 1:6.732865 2:0.7 3:0.04 4:0.63 5:0.13 6:0.08 7:0.96 8:1 9:5 
0.1347052634947565 1:7.6916589 2:0.04 3:0.63 4:0.28 5:0.13 6:0.08 7:0.96 8:2 9:5 
0.9871957304641299 1:5.4693089 2:0.63 3:0.28 4:0.13 5:0.13 6:0.08 7:0.96 8:3 9:5 
1 1:-1.1435432 2:0.06 3:0.49 4:0.78 5:0.49 6:0.78 7:0.68 8:5 9:4 
1 1:-0.21115501 2:0.06 3:0.49 4:0.78 5:0.68 6:0.97 7:0.54 8:5 9:2 
1 1:2.2475891 2:0.87 3:0.77 4:1 5:1 6:0.84 7:0.04 8:2 9:4 
1 1:2.4503401 2:0.77 3:1 4:0.84 5:0.04 6:0.25 7:0.99 8:3 9:6 
1 1:2.0408337 2:0.77 3:1 4:0.84 5:0.99 6:0.59 7:0.94 8:3 9:8 
1 1:4.3361005 2:1 3:0.84 4:0.04 5:0.84 6:0.04 7:0.25 8:4 9:5 
0.3641226239564666 1:5.8205344 2:0.84 3:0.04 4:0.25 5:0.04 6:0.25 7:0.99 8:5 9:6 
1 1:3.0852667 2:0.25 3:0.99 4:0.59 5:0.99 6:0.59 7:0.94 8:7 9:8 
1 1:6.0626936 2:0.59 3:0.94 4:1 5:0.94 6:1 7:0.98 8:9 9:10 
1 1:2.4323784 2:0.95 3:0.67 4:0.01 5:0.15 6:0.32 7:0.99 8:1 9:5 
1 1:-1.0854325 2:0.15 3:0.41 4:0.03 5:0.41 6:0.03 7:0.03 8:2 9:3 
1 1:-1.0854325 2:0.03 3:0.18 4:0.1 5:0.18 6:0.1 7:0.11 8:5 9:6 
1 1:-1.0854325 2:0.03 3:0.18 4:0.1 5:0.1 6:0.11 7:0.01 8:5 9:7 
0.49965175153356 1:43.320444 2:0.1 3:0.11 4:0.01 5:0.11 6:0.01 7:0.12 8:7 9:8 
0.2431403031335478 1:23.569743 2:0.11 3:0.01 4:0.12 5:0.12 6:0.3 7:0.95 8:8 9:10 
0.3531037459776877 1:30.637754 2:0.01 3:0.12 4:0.3 5:0.12 6:0.3 7:0.95 8:9 9:10 
1 1:-0.16832739 2:0.01 3:0.12 4:0.3 5:0.99 6:0.58 7:1 8:9 9:1 
0.05246366833690252 1:17.743963 2:0.12 3:0.3 4:0.95 5:0.3 6:0.95 7:0.22 8:10 9:11 
0.541873377756973 1:3.5284872 2:0.12 3:0.3 4:0.95 5:0.22 6:0.48 7:0.97 8:10 9:13 
0.8197668846265497 1:2.3358295 2:0.12 3:0.3 4:0.95 5:0.48 6:0.97 7:0.85 8:10 9:14 
1 1:-1.6392634 2:0.12 3:0.3 4:0.95 5:1 6:0.99 7:0.67 8:10 9:4 
0.1162709979473439 1:16.497189 2:0.3 3:0.95 4:0.22 5:0.95 6:0.22 7:0.48 8:11 9:12 
1 1:-0.90052091 2:0.3 3:0.95 4:0.22 5:0.12 6:1 7:0.99 8:11 9:5 
1 1:-1.0032615 2:0.3 3:0.95 4:0.22 5:1 6:0.99 7:0.67 8:11 9:4 
1 1:-0.90041937 2:0.3 3:0.95 4:0.22 5:0.67 6:0.99 7:0.58 8:11 9:2 
1 1:-0.85292395 2:0.48 3:0.97 4:0.85 5:1 6:0.99 7:0.67 8:14 9:4 
1 1:-1.0933006 2:0.97 3:0.85 4:0.03 5:0.12 6:1 7:0.99 8:15 9:5 
1 1:-0.58869001 2:0.85 3:0.03 4:0.84 5:0.28 6:0.12 7:1 8:16 9:6 
1 1:-0.26884318 2:0.84 3:0.93 4:0.63 5:0.9 6:0.99 7:1 8:5 9:9 
1 1:-2.0585619 2:0.93 3:0.63 4:1 5:0.95 6:0.9 7:0.99 8:4 9:8 
1 1:0.66438033 2:0.93 3:0.63 4:1 5:0.98 6:0.78 7:0.07 8:4 9:6 
1 1:1.2908778 2:0.63 3:1 4:0.19 5:0.99 6:0.95 7:0.9 8:3 9:7 
1 1:1.7802937 2:1 3:0.19 4:0.97 5:0.74 6:0.99 7:0.95 8:2 9:6 
1 1:1.5053503 2:0.12 3:1 4:0.99 5:0.22 6:0.99 7:0.41 8:5 9:3 
1 1:0.17690973 2:0.12 3:1 4:0.99 5:0.99 6:0.41 7:1 8:5 9:4 
1 1:0.70241044 2:0.99 3:0.67 4:0.99 5:0.14 6:0.99 7:0.22 8:3 9:1 
1 1:-0.082529824 2:0.67 3:0.99 4:0.58 5:0.99 6:0.58 7:1 8:2 9:1 
1 1:0.097445178 2:0.14 3:0.99 4:0.22 5:0.99 6:0.22 7:0.99 8:1 9:2 
1 1:-0.15100113 2:0.99 3:0.22 4:0.99 5:0.22 6:0.99 7:0.41 8:2 9:3 
1 1:-0.27100762 2:0.22 3:0.99 4:0.41 5:0.99 6:0.41 7:1 8:3 9:4 
1 1:-0.94326791 2:0.03 3:0.55 4:0.93 5:0.55 6:0.93 7:0.02 8:7 9:8 
1 1:-0.26756054 2:0.18 3:0.24 4:0.75 5:0.07 6:0.95 7:0.74 8:1 9:8 
1 1:-1.213395 2:0.24 3:0.75 4:0.03 5:0.07 6:0.9 7:0.41 8:2 9:14 
1 1:-0.17880223 2:0.24 3:0.75 4:0.03 5:0.41 6:0.83 7:0.72 8:2 9:16 
1 1:-0.091855646 2:0.75 3:0.03 4:0.36 5:0.03 6:0.36 7:0.98 8:3 9:4 
1 1:-0.25644972 2:0.03 3:0.36 4:0.98 5:0.36 6:0.98 7:0.78 8:4 9:5 
1 1:-1.0786902 2:0.98 3:0.78 4:0.07 5:0.78 6:0.07 7:0.95 8:6 9:7 
1 1:-0.098637576 2:0.82 3:0.05 4:0.83 5:0.05 6:0.83 7:0.23 8:8 9:7 
1 1:-0.36562864 2:0.82 3:0.05 4:0.83 5:0.93 6:0.09 7:0.52 8:8 9:2 
1 1:-1.9083547 2:0.05 3:0.83 4:0.23 5:0.83 6:0.23 7:0.07 8:7 9:6 
1 1:0.5148198 2:0.83 3:0.23 4:0.07 5:0.59 6:0.93 7:0.09 8:6 9:3 
1 1:-1.4105269 2:0.07 3:0.59 4:0.93 5:0.59 6:0.93 7:0.09 8:4 9:3 
1 1:-1.8189765 2:0.24 3:0.72 4:0.42 5:0.02 6:0.54 7:0.73 8:4 9:8 
1 1:-0.81885022 2:0.72 3:0.42 4:0.24 5:0.42 6:0.24 7:0.5 8:5 9:6 
1 1:-0.40052165 2:0.72 3:0.42 4:0.24 5:0.24 6:0.5 7:0.17 8:5 9:7 
1 1:-0.96216646 2:0.72 3:0.42 4:0.24 5:0.37 6:0.19 7:0.52 8:5 9:8 
1 1:-0.98770532 2:0.42 3:0.24 4:0.5 5:0.37 6:0.19 7:0.52 8:6 9:8 
1 1:-0.061414453 2:0.17 3:0.24 4:0.1 5:0.4 6:0.37 7:0.19 8:9 9:7 
1 1:2.5862692 2:0.25 3:0.44 4:0.93 5:0.36 6:0.58 7:0.8 8:7 9:5 
1 1:-0.80568345 2:0.93 3:0.37 4:0.73 5:0.77 6:0.47 7:0.36 8:5 9:3 
1 1:-1.0609916 2:0.73 3:0.5 4:0.28 5:0.5 6:0.28 7:0.97 8:3 9:2 
1 1:-0.78513511 2:0.73 3:0.5 4:0.28 5:0.01 6:0.98 7:0.77 8:3 9:1 
1 1:-0.58397259 2:0.47 3:0.36 4:0.58 5:0.36 6:0.58 7:0.8 8:4 9:5 
1 1:-2.9071262 2:0.36 3:0.58 4:0.8 5:0.58 6:0.8 7:0.04 8:5 9:6 
1 1:-0.72216684 2:0.36 3:0.58 4:0.8 5:0.71 6:1 7:0.24 8:5 9:1 
1 1:-1.1259971 2:0.58 3:0.8 4:0.04 5:0.97 6:0.71 7:1 8:6 9:2 
1 1:-0.88347737 2:0.8 3:0.04 4:0.07 5:0.43 6:0.97 7:0.71 8:7 9:3 
1 1:-1.5738367 2:0.13 3:0.72 4:0.06 5:0.17 6:0.4 7:0.37 8:2 9:6 
1 1:-2.0193988 2:0.72 3:0.06 4:1 5:0.06 6:1 7:0.17 8:3 9:4 
1 1:-1.9737744 2:0.06 3:1 4:0.17 5:1 6:0.17 7:0.4 8:4 9:5 
1 1:-0.11029352 2:1 3:0.17 4:0.4 5:0.17 6:0.4 7:0.37 8:5 9:6 
0.05484362172608241 1:6.1344104 2:0.1 3:0.63 4:0.09 5:0.09 6:0.1 7:0.77 8:8 9:6 
0.6792290616441905 1:12.986672 2:0.1 3:0.63 4:0.09 5:0.77 6:0.03 7:0.36 8:8 9:4 
1 1:0.3018704 2:0.1 3:0.77 4:0.03 5:0.02 6:0.59 7:0.94 8:5 9:2 
0.1643799062155674 1:3.6630837 2:0.77 3:0.03 4:0.36 5:0.93 6:0.02 7:0.59 8:4 9:1 
1 1:1.1961125 2:0.34 3:0.84 4:0.64 5:0.02 6:0.54 7:0.73 8:3 9:8 
1 1:-0.68564916 2:0.34 3:0.84 4:0.64 5:0.4 6:0.14 7:0.93 8:3 9:3 
1 1:1.7384585 2:0.82 3:0.02 4:0.54 5:0.19 6:0.4 7:0.14 8:7 9:4 
1 1:0.58220087 2:0.02 3:0.54 4:0.73 5:0.19 6:0.4 7:0.14 8:8 9:4 
0.9347656737987606 1:1.9827843 2:0.54 3:0.73 4:0.52 5:0.97 6:0.79 7:0.19 8:9 9:6 
1 1:-0.14432074 2:0.52 3:0.85 4:0.27 5:0.9 6:0.41 7:0.83 8:11 9:15 
1 1:1.2048825 2:0.52 3:0.85 4:0.27 5:0.83 6:0.72 7:0.64 8:11 9:17 
0.214416069139019 1:2.5397897 2:0.83 3:0.72 4:0.64 5:0.64 6:0.93 7:0.8 8:17 9:19 
1 1:0.15866425 2:0.79 3:0.19 4:0.4 5:0.14 6:0.93 7:0.02 8:5 9:2 
0.1793418493100618 1:2.7831483 2:0.79 3:0.19 4:0.4 5:0.09 6:0.29 7:0.14 8:5 9:2 
1 1:-1.6817186 2:0.19 3:0.4 4:0.14 5:0.29 6:0.14 7:0.05 8:4 9:1 
1 1:-0.92173301 2:0.4 3:0.14 4:0.93 5:0.14 6:0.93 7:0.02 8:3 9:2 
1 1:1.5349845 2:0.4 3:0.14 4:0.93 5:0.29 6:0.14 7:0.05 8:3 9:1 
1 1:-0.42043989 2:0.14 3:0.93 4:0.02 5:0.02 6:0.09 7:0.29 8:2 9:3 
1 1:-1.0140998 2:0.14 3:0.93 4:0.02 5:0.09 6:0.29 7:0.14 8:2 9:2 
1 1:2.1143933 2:0.02 3:0.59 4:0.94 5:0.94 6:0.81 7:0.02 8:2 9:4 
0.9292331922162839 1:3.0917288 2:0.02 3:0.59 4:0.94 5:0.99 6:0.31 7:0.13 8:2 9:12 
1 1:1.0327476 2:0.59 3:0.94 4:0.81 5:0.02 6:0.46 7:0.99 8:3 9:6 
1 1:0.27271719 2:0.59 3:0.94 4:0.81 5:0.99 6:0.28 7:0.95 8:3 9:8 
1 1:2.4303383 2:0.59 3:0.94 4:0.81 5:1 6:0.99 7:0.31 8:3 9:11 
1 1:1.7699098 2:0.94 3:0.81 4:0.02 5:0.28 6:0.95 7:1 8:4 9:9 
1 1:0.74081466 2:0.99 3:0.28 4:0.95 5:1 6:0.99 7:0.31 8:8 9:11 
1 1:-2.620933 2:0.03 3:0.4 4:0.95 5:0.93 6:0.92 7:1 8:6 9:7 
1 1:-0.8733018 2:0.4 3:0.95 4:0.02 5:0.95 6:0.02 7:0.09 8:5 9:4 
0.3879756607719292 1:3.1960978 2:0.15 3:0.2 4:0.08 5:0.2 6:0.08 7:0.03 8:2 9:3 
1 1:0.86085322 2:0.92 3:1 4:0.95 5:0.71 6:0.41 7:0.99 8:8 9:5 
1 1:0.10018681 2:0.97 3:0.04 4:0.99 5:0.81 6:0.97 7:0.14 8:8 9:4 
0.9406750886453232 1:1.8884947 2:0.04 3:0.99 4:0.26 5:0.81 6:0.97 7:0.14 8:7 9:4 
0.3004180797877853 1:12.363578 2:0.99 3:0.26 4:0.81 5:0.26 6:0.81 7:0.97 8:6 9:5 
1 1:-0.56535354 2:0.26 3:0.81 4:0.97 5:0.14 6:0.59 7:0.5 8:5 9:2 
1 1:-0.41836095 2:0.81 3:0.97 4:0.14 5:0.97 6:0.14 7:0.59 8:4 9:3 
1 1:-0.5864454 2:0.97 3:0.14 4:0.59 5:0.14 6:0.59 7:0.5 8:3 9:2 
1 1:3.4015331 2:0.14 3:0.59 4:0.5 5:0.59 6:0.5 7:0.3 8:2 9:1 
0.3996330363081648 1:21.227843 2:0.21 3:0.14 4:0.28 5:0.27 6:0.25 7:0.25 8:1 9:6 
1 1:-3.772577 2:0.31 3:0.27 4:0.25 5:0.18 6:0.22 7:1 8:5 9:2 
1 1:-0.44897614 2:1 3:0.44 4:0.18 5:0.44 6:0.18 7:0.37 8:7 9:6 
1 1:-0.74446216 2:0.18 3:0.37 4:0.74 5:0.16 6:0.32 7:0.21 8:5 9:9 
1 1:-1.5466291 2:0.37 3:0.74 4:0.56 5:0.28 6:0.16 7:0.75 8:4 9:6 
1 1:-4.4760231 2:0.74 3:0.56 4:0.39 5:0.56 6:0.39 7:0.3 8:3 9:2 
1 1:-6.2231133 2:0.74 3:0.56 4:0.39 5:0.75 6:0.16 7:0.32 8:3 9:8 
1 1:-0.22836122 2:0.56 3:0.39 4:0.3 5:0.16 6:0.75 7:0.16 8:2 9:7 
1 1:12.631231 2:0.39 3:0.3 4:0.38 5:0.28 6:0.16 7:0.75 8:1 9:6 
1 1:-1.7684898 2:0.39 3:0.29 4:0.59 5:0.29 6:0.59 7:0.05 8:1 9:2 
1 1:-1.7682961 2:0.39 3:0.29 4:0.59 5:0.51 6:0.28 7:0.16 8:1 9:5 
1 1:-2.0895339 2:0.29 3:0.59 4:0.05 5:0.59 6:0.05 7:0.51 8:2 9:3 
1 1:2.0764393 2:0.29 3:0.59 4:0.05 5:0.51 6:0.28 7:0.16 8:2 9:5 
1 1:-0.3225893 2:0.59 3:0.05 4:0.51 5:0.05 6:0.51 7:0.28 8:3 9:4 
1 1:-1.3978284 2:0.51 3:0.28 4:0.16 5:0.28 6:0.16 7:0.75 8:5 9:6 
1 1:-0.062023559 2:0.51 3:0.28 4:0.16 5:0.18 6:0.44 7:0.25 8:5 9:6 
1 1:-1.0829759 2:0.75 3:0.16 4:0.32 5:0.16 6:0.32 7:0.21 8:8 9:9 
1 1:2.0767128 2:0.98 3:1 4:0.23 5:0.19 6:0.82 7:0.34 8:8 9:5 
0.4764339600075482 1:5.9931635 2:1 3:0.23 4:0.19 5:0.23 6:0.19 7:0.82 8:7 9:6 
1 1:-2.3366066 2:0.19 3:0.82 4:0.34 5:0.18 6:0.22 7:1 8:5 9:2 
1 1:2.0768267 2:1 3:0.99 4:0.94 5:0.99 6:0.94 7:0.93 8:1 9:2 
1 1:-2.2807178 2:0.18 3:0.44 4:0.25 5:0.25 6:0.45 7:0.58 8:6 9:4 
1 1:-2.81766 2:0.25 3:0.45 4:0.58 5:0.45 6:0.58 7:0.37 8:4 9:3 
0.1518340640136268 1:19.032287 2:0.25 3:0.45 4:0.58 5:0.58 6:0.37 7:0.06 8:4 9:2 
1 1:10.255236 2:1 3:0.98 4:1 5:0.07 6:0.17 7:0.11 8:1 9:6 
1 1:-5.8302057 2:1 3:0.98 4:1 5:0.17 6:0.11 7:0.04 8:1 9:7 
0.2388908983673147 1:2.0222027 2:0.98 3:1 4:0.2 5:0.2 6:0.73 7:0.15 8:2 9:4 
0.1705755554185278 1:15.973047 2:1 3:0.2 4:0.73 5:0.07 6:0.17 7:0.11 8:3 9:6 
1 1:-1.5768056 2:0.2 3:0.73 4:0.15 5:0.73 6:0.15 7:0.25 8:4 9:5 
1 1:-1.5768752 2:0.73 3:0.15 4:0.25 5:0.51 6:0.87 7:0.91 8:5 9:2 
1 1:-1.7626332 2:0.87 3:0.91 4:0.51 5:0.91 6:0.51 7:0.07 8:3 9:4 
1 1:-2.5345929 2:0.02 3:0.25 4:0.39 5:0.25 6:0.39 7:0.43 8:6 9:5 
1 1:-3.1421679 2:0.25 3:0.39 4:0.43 5:0.39 6:0.43 7:0.07 8:5 9:4 
1 1:-2.5251698 2:0.39 3:0.43 4:0.07 5:0.3 6:0.96 7:0.37 8:4 9:4 
1 1:-1.8912285 2:0.43 3:0.07 4:0.16 5:0.68 6:0.3 7:0.96 8:3 9:5 
1 1:-2.4888564 2:0.07 3:0.16 4:0.21 5:0.1 6:0.68 7:0.3 8:2 9:6 
1 1:-3.1039972 2:0.07 3:0.16 4:0.21 5:0.52 6:0.65 7:0.3 8:2 9:1 
0.4527075278218624 1:5.3849276 2:0.14 3:0.11 4:0.3 5:0.11 6:0.3 7:0.08 8:1 9:2 
1 1:-2.6385767 2:0.56 3:0.47 4:0.1 5:0.47 6:0.1 7:0.68 8:8 9:7 
1 1:1.0743501 2:0.56 3:0.47 4:0.1 5:0.28 6:0.82 7:0.21 8:8 9:1 
1 1:-0.018269679 2:0.1 3:0.68 4:0.3 5:0.52 6:0.65 7:0.3 8:6 9:1 
0.1678228747064179 1:16.251523 2:1 3:0.99 4:0.99 5:0.99 6:0.99 7:0.9 8:6 9:7 
0.5029073065165451 1:20.816853 2:1 3:0.38 4:0.27 5:0.38 6:0.27 7:0.82 8:5 9:4 
0.7766214075453175 1:39.39949 2:0.27 3:0.82 4:0.52 5:0.82 6:0.52 7:0.65 8:3 9:2 
1 1:15.832005 2:0.99 3:0.21 4:1 5:0.6 6:0.35 7:0.99 8:1 9:4 
1 1:2.9937902 2:1 3:0.6 4:0.35 5:0.99 6:0.24 7:0.2 8:3 9:6 
1 1:-0.37417576 2:0.38 3:1 4:0.67 5:0.43 6:0.95 7:0.54 8:9 9:13 
1 1:-1.3950849 2:0.86 3:0.86 4:0.75 5:0.69 6:0.5 7:0.2 8:8 9:3 
0.07623886128412852 1:6.4902847 2:0.86 3:0.75 4:0.46 5:0.75 6:0.46 7:0.26 8:7 9:6 
1 1:-1.2363424 2:0.86 3:0.75 4:0.46 5:0.2 6:0.88 7:0.81 8:7 9:5 
1 1:-0.76018502 2:0.75 3:0.46 4:0.26 5:0.72 6:0.69 7:0.5 8:6 9:2 
0.1562420707660742 1:6.5639729 2:0.22 3:0.69 4:0.47 5:0.69 6:0.47 7:0.73 8:2 9:1 
1 1:-0.049480663 2:0.74 3:0.97 4:0.4 5:0.33 6:0.98 7:0.14 8:2 9:6 
1 1:-0.49208642 2:0.74 3:0.97 4:0.4 5:0.89 6:0.7 7:0.45 8:2 9:5 
1 1:-1.4819409 2:0.97 3:0.4 4:0.41 5:0.79 6:0.33 7:0.98 8:3 9:7 
1 1:-0.95906617 2:0.4 3:0.41 4:0.66 5:0.48 6:0.79 7:0.33 8:4 9:8 
0.5079610683335196 1:-0.38760069 2:0.49 3:0.97 4:0.98 5:0.43 6:0.95 7:0.54 8:10 9:13 
0.7443627965393973 1:-0.42597534 2:0.97 3:0.98 4:0.43 5:0.95 6:0.54 7:0.65 8:11 9:14 
0.2990645803101527 1:-0.30802494 2:0.97 3:0.98 4:0.43 5:0.54 6:0.65 7:0.83 8:11 9:15 
1 1:-0.10774418 2:0.97 3:0.98 4:0.43 5:0.83 6:0.88 7:0.14 8:11 9:17 
1 1:-1.8366813 2:0.98 3:0.43 4:0.95 5:0.65 6:0.83 7:0.88 8:12 9:16 
0.5269790104798306 1:12.924043 2:0.95 3:0.54 4:0.65 5:0.54 6:0.65 7:0.83 8:14 9:15 
1 1:-1.2438271 2:0.98 3:0.14 4:1 5:0.14 6:1 7:0.36 8:5 9:4 
1 1:-1.585898 2:0.14 3:1 4:0.36 5:1 6:0.36 7:0.53 8:4 9:3 
1 1:-0.50722894 2:0.36 3:0.53 4:0.58 5:0.7 6:0.45 7:1 8:2 9:4 
1 1:-0.34076986 2:0.53 3:0.58 4:0.59 5:0.72 6:0.69 7:0.5 8:1 9:2 
1 1:0.32562193 2:0.56 3:0.72 4:0.69 5:0.72 6:0.69 7:0.5 8:1 9:2 
1 1:-0.67758586 2:0.72 3:0.69 4:0.5 5:0.69 6:0.5 7:0.2 8:2 9:3 
1 1:-2.5543015 2:0.69 3:0.5 4:0.2 5:0.5 6:0.2 7:0.88 8:3 9:4 
1 1:-1.60914 2:0.69 3:0.5 4:0.2 5:0.07 6:0.82 7:0.93 8:3 9:6 
1 1:-0.43200885 2:0.5 3:0.2 4:0.88 5:0.2 6:0.88 7:0.81 8:4 9:5 
1 1:-1.1246399 2:0.5 3:0.2 4:0.88 5:0.48 6:0.67 7:0.2 8:4 9:9 
1 1:-0.45338423 2:0.2 3:0.88 4:0.81 5:0.83 6:0.48 7:0.67 8:5 9:8 
1 1:0.22276545 2:0.88 3:0.81 4:0.83 5:0.81 6:0.83 7:0.48 8:6 9:7 
1 1:-0.693967 2:0.81 3:0.83 4:0.48 5:0.83 6:0.48 7:0.67 8:7 9:8 
1 1:-0.95469702 2:0.83 3:0.48 4:0.67 5:0.48 6:0.67 7:0.2 8:8 9:9 
1 1:-1.0238521 2:0.83 3:0.48 4:0.67 5:0.82 6:0.93 7:0.71 8:8 9:7 
1 1:-0.65317258 2:0.48 3:0.67 4:0.2 5:0.82 6:0.93 7:0.71 8:9 9:7 
1 1:-0.056028023 2:0.92 3:0.89 4:0.7 5:0.89 6:0.7 7:0.45 8:6 9:5 
1 1:-0.27675147 2:0.92 3:0.89 4:0.7 5:0.95 6:0.92 7:0.57 8:6 9:5 
1 1:0.32573779 2:0.92 3:0.89 4:0.7 5:0.51 6:0.85 7:0.8 8:6 9:8 
0.2460190688455599 1:6.7861383 2:0.7 3:0.45 4:1 5:0.45 6:1 7:0.9 8:4 9:3 
1 1:-1.2204288 2:0.9 3:0.98 4:0.7 5:0.47 6:0.21 7:0.51 8:1 9:1 
1 1:2.5776892 2:0.63 3:0.39 4:0.79 5:0.94 6:1 7:0.56 8:7 9:3 
1 1:-1.3470602 2:0.63 3:0.39 4:0.79 5:0.36 6:0.94 7:0.82 8:7 9:3 
0.7581498059648955 1:3.8720935 2:0.39 3:0.79 4:0.85 5:0.94 6:1 7:0.56 8:6 9:3 
1 1:1.9060084 2:0.39 3:0.79 4:0.85 5:0.82 6:0.9 7:0.69 8:6 9:1 
1 1:2.7249788 2:0.85 3:0.94 4:1 5:0.27 6:0.83 7:0.62 8:4 9:6 
0.05225311148572528 1:3.6091042 2:0.94 3:1 4:0.56 5:1 6:0.56 7:0.55 8:3 9:2 
1 1:0.01414147 2:0.47 3:0.99 4:1 5:0.57 6:0.51 7:0.85 8:2 9:7 
1 1:0.014160008 2:0.47 3:0.99 4:1 5:0.51 6:0.85 7:0.8 8:2 9:8 
1 1:3.2394523 2:1 3:0.95 4:0.92 5:0.92 6:0.57 7:0.51 8:4 9:6 
1 1:-0.37604925 2:1 3:0.95 4:0.92 5:0.57 6:0.51 7:0.85 8:4 9:7 
1 1:-0.7007652 2:1 3:0.95 4:0.92 5:0.68 6:1 7:0.84 8:4 9:1 
0.09584656323389071 1:2.4541456 2:0.95 3:0.92 4:0.57 5:0.92 6:0.57 7:0.51 8:5 9:6 
1 1:-0.788325 2:0.92 3:0.57 4:0.51 5:0.57 6:0.51 7:0.85 8:6 9:7 
1 1:-0.98242221 2:0.37 3:0.74 4:0.19 5:0.36 6:0.94 7:0.82 8:6 9:3 
1 1:-1.1984498 2:0.19 3:0.36 4:0.94 5:0.36 6:0.94 7:0.82 8:4 9:3 
1 1:0.2987014 2:0.19 3:0.36 4:0.94 5:0.6 6:0.5 7:0.98 8:4 9:2 
1 1:-0.99057368 2:0.19 3:0.36 4:0.94 5:0.75 6:0.81 7:0.58 8:4 9:4 
1 1:-0.43449409 2:0.79 3:0.89 4:0.93 5:0.89 6:0.93 7:0.56 8:2 9:3 
1 1:-0.1266459 2:0.79 3:0.89 4:0.93 5:0.93 6:0.56 7:0.27 8:2 9:4 
1 1:-0.61474637 2:0.79 3:0.89 4:0.93 5:0.44 6:0.3 7:0.6 8:2 9:4 
1 1:-0.25795171 2:0.79 3:0.89 4:0.93 5:0.3 6:0.6 7:0.5 8:2 9:3 
1 1:3.4725956 2:0.89 3:0.93 4:0.56 5:0.3 6:0.6 7:0.5 8:3 9:3 
1 1:-0.53640562 2:0.56 3:0.97 4:0.44 5:0.97 6:0.44 7:0.3 8:6 9:5 
1 1:-0.2579239 2:0.3 3:0.6 4:0.5 5:0.5 6:0.98 7:0.92 8:3 9:1 
1 1:-0.82049756 2:0.6 3:0.5 4:0.98 5:0.58 6:0.82 7:0.2 8:2 9:6 
0.2555977479756028 1:5.1169668 2:0.47 3:0.21 4:0.51 5:0.21 6:0.51 7:0.53 8:1 9:2 
1 1:10.884988 2:0.53 3:0.88 4:0.98 5:0.88 6:0.98 7:0.51 8:4 9:5 
1 1:-1.5463543 2:0.95 3:0.44 4:0.25 5:0.39 6:0.4 7:0.93 8:7 9:4 
1 1:2.9562046 2:0.25 3:0.39 4:0.4 5:0.39 6:0.4 7:0.93 8:5 9:4 
0.2566798584817045 1:1.994133 2:0.25 3:0.39 4:0.4 5:0.4 6:0.93 7:0.73 8:5 9:3 
1 1:-2.6432024 2:0.39 3:0.4 4:0.93 5:0.4 6:0.93 7:0.73 8:4 9:3 
1 1:-0.49178002 2:0.4 3:0.93 4:0.73 5:1 6:0.97 7:0.27 8:3 9:7 
1 1:-0.73821933 2:0.93 3:0.73 4:0.92 5:0.73 6:0.92 7:0.69 8:2 9:1 
1 1:-1.3217733 2:0.93 3:0.73 4:0.92 5:1 6:0.97 7:0.27 8:2 9:7 
1 1:0.32558138 2:0.73 3:0.92 4:0.69 5:0.65 6:1 7:0.97 8:1 9:8 
1 1:-2.1359818 2:0.73 3:0.62 4:0.3 5:0.62 6:0.3 7:0.17 8:10 9:9 
1 1:3.7447322 2:0.73 3:0.62 4:0.3 5:0.41 6:0.34 7:0.37 8:10 9:2 
0.9578037821945458 1:10.74045 2:0.73 3:0.62 4:0.3 5:0.34 6:0.37 7:0.14 8:10 9:1 
1 1:-1.447385 2:0.62 3:0.3 4:0.17 5:0.41 6:0.34 7:0.37 8:9 9:2 
0.2877615294362451 1:4.5731918 2:0.3 3:0.17 4:0.55 5:0.47 6:0.74 7:0.19 8:8 9:4 
1 1:-1.2399226 2:0.3 3:0.17 4:0.55 5:0.13 6:0.25 7:0.31 8:8 9:3 
0.8859118837869584 1:6.9322403 2:0.17 3:0.55 4:0.19 5:0.74 6:0.19 7:0.33 8:7 9:3 
1 1:2.6141278 2:0.17 3:0.55 4:0.19 5:0.33 6:0.25 7:0.34 8:7 9:1 
0.06401637875122361 1:17.955697 2:0.55 3:0.19 4:0.47 5:0.19 6:0.47 7:0.74 8:6 9:5 
1 1:-1.5442051 2:0.55 3:0.19 4:0.47 5:0.11 6:0.34 7:0.13 8:6 9:1 
1 1:-1.9890862 2:0.74 3:0.19 4:0.33 5:0.19 6:0.33 7:0.25 8:3 9:2 
1 1:-1.2483284 2:0.36 3:0.53 4:0.65 5:0.6 6:0.51 7:0.59 8:10 9:3 
1 1:-0.9595441 2:0.53 3:0.65 4:1 5:0.38 6:0.6 7:0.51 8:9 9:2 
1 1:-1.1100164 2:0.65 3:1 4:0.97 5:0.44 6:0.38 7:0.6 8:8 9:1 
1 1:2.9564479 2:0.97 3:0.27 4:0.86 5:0.27 6:0.86 7:0.3 8:6 9:5 
1 1:0.055089992 2:0.86 3:0.3 4:0.35 5:0.22 6:0.57 7:0.71 8:4 9:1 
0.5915137058480225 1:12.747122 2:0.44 3:0.38 4:0.6 5:0.61 6:0.44 7:0.41 8:1 9:5 
1 1:5.1207903 2:0.38 3:0.6 4:0.51 5:0.26 6:0.61 7:0.44 8:2 9:6 
1 1:-1.0594142 2:0.26 3:0.61 4:0.44 5:0.61 6:0.44 7:0.41 8:6 9:5 
1 1:-0.71314853 2:0.44 3:0.41 4:0.82 5:1 6:0.38 7:0.69 8:4 9:6 
1 1:-0.067276484 2:0.82 3:0.81 4:0.99 5:1 6:0.38 7:0.69 8:2 9:6 
1 1:-0.36318683 2:0.81 3:0.99 4:0.09 5:1 6:0.9 7:0.42 8:1 9:3 
1 1:-0.86164073 2:0.78 3:0.56 4:1 5:0.56 6:1 7:0.9 8:1 9:2 
1 1:0.32561034 2:0.56 3:1 4:0.9 5:0.42 6:1 7:0.38 8:2 9:5 
1 1:-1.7276726 2:0.9 3:0.42 4:1 5:0.26 6:0.51 7:0.42 8:4 9:5 
